


    // !!! This file is generated using emlearn !!!

#include <eml_trees.h>
#include "config.hpp"

#if defined(TREE_TEST) || defined(TREE_DEPLOY)
    

static const EmlTreesNode dt_nodes[3053] = {
  { 525, 1.675197f, 1, 16 },
  { 2538, 1.021851f, 1, 8 },
  { 533, 0.832138f, 1, 4 },
  { 2560, 0.602065f, 1, 2 },
  { 613, 0.553306f, -1, -2 },
  { 2254, 0.662868f, -2, -1 },
  { 572, 0.877137f, 1, 2 },
  { 2099, 0.845194f, -2, -1 },
  { 487, 0.793788f, -1, -2 },
  { 2448, 0.943671f, 1, 4 },
  { 647, 0.898592f, 1, 2 },
  { 1787, 0.789153f, -2, -1 },
  { 504, 0.769357f, -1, -2 },
  { 2497, 0.984270f, 1, 2 },
  { 606, 0.928660f, -1, -2 },
  { 2313, 0.933557f, -2, -1 },
  { 573, 1.545813f, 1, 8 },
  { 2422, 1.273863f, 1, 4 },
  { 469, 1.043753f, 1, 2 },
  { 2008, 1.213950f, -1, -1 },
  { 766, 0.907914f, -1, -2 },
  { 1985, 1.302976f, 1, 2 },
  { 470, 1.112697f, -1, -2 },
  { 2494, 1.149979f, -2, -1 },
  { 420, 1.506784f, 1, 4 },
  { 2368, 1.501725f, 1, 2 },
  { 665, 1.234979f, -2, -2 },
  { 1994, 1.425853f, -2, -1 },
  { 523, 1.261614f, 1, 2 },
  { 2447, 1.358024f, -2, -1 },
  { 560, 1.575424f, -2, -2 },
  { 486, 1.609824f, 1, 16 },
  { 2386, 1.002243f, 1, 8 },
  { 616, 0.833543f, 1, 4 },
  { 2527, 0.657819f, 1, 2 },
  { 643, 0.605149f, -1, -2 },
  { 1847, 0.696464f, -2, -1 },
  { 544, 0.729473f, 1, 2 },
  { 1647, 0.750240f, -2, -1 },
  { 472, 0.739341f, -1, -2 },
  { 2203, 0.986880f, 1, 4 },
  { 683, 0.964540f, 1, 2 },
  { 3476, 0.999346f, -1, -2 },
  { 438, 0.891180f, -1, -2 },
  { 2405, 0.959565f, 1, 2 },
  { 831, 1.025382f, -1, -2 },
  { 2371, 0.934195f, -2, -1 },
  { 594, 1.513122f, 1, 8 },
  { 2192, 1.429298f, 1, 4 },
  { 519, 0.902990f, 1, 2 },
  { 1205, 0.862923f, -1, -1 },
  { 632, 1.066689f, -2, -2 },
  { 2329, 1.255060f, 1, 2 },
  { 428, 1.145838f, -1, -2 },
  { 2500, 1.301615f, -2, -1 },
  { 574, 1.443164f, 1, 4 },
  { 1765, 1.690772f, 1, 2 },
  { 2304, 2.430564f, -2, -1 },
  { 2364, 1.424425f, -2, -1 },
  { 561, 1.393592f, 1, 2 },
  { 2523, 1.632398f, -2, -1 },
  { 501, 1.317292f, -1, -2 },
  { 458, 1.668526f, 1, 16 },
  { 2453, 0.991986f, 1, 8 },
  { 480, 0.892821f, 1, 4 },
  { 2274, 0.682561f, 1, 2 },
  { 495, 0.570431f, -1, -2 },
  { 1817, 0.740491f, -1, -1 },
  { 535, 0.876747f, 1, 2 },
  { 1736, 0.789656f, -2, -1 },
  { 965, 0.655715f, -1, -2 },
  { 2388, 0.933465f, 1, 4 },
  { 572, 0.861961f, 1, 2 },
  { 2867, 0.582027f, -2, -1 },
  { 600, 0.806879f, -1, -2 },
  { 4933, 0.644782f, 1, 2 },
  { 2538, 1.003277f, -1, -1 },
  { 1826, 1.477105f, -2, -2 },
  { 573, 1.551435f, 1, 8 },
  { 1791, 1.652495f, 1, 4 },
  { 583, 1.088279f, 1, 2 },
  { 1794, 1.207131f, -2, -1 },
  { 710, 0.915830f, -1, -2 },
  { 1917, 1.454016f, 1, 2 },
  { 600, 1.069616f, -1, -2 },
  { 2459, 1.102092f, -2, -1 },
  { 578, 1.500316f, 1, 4 },
  { 2217, 1.673726f, 1, 2 },
  { 1316, 1.110729f, -1, -2 },
  { 2451, 1.213088f, -2, -1 },
  { 472, 1.353549f, 1, 2 },
  { 1852, 1.702577f, -2, -1 },
  { 539, 1.544908f, -2, -2 },
  { 567, 1.702044f, 1, 16 },
  { 2460, 1.030719f, 1, 8 },
  { 504, 0.864940f, 1, 4 },
  { 2528, 0.701255f, 1, 2 },
  { 463, 0.629548f, -1, -2 },
  { 2437, 0.685062f, -2, -1 },
  { 586, 0.860247f, 1, 2 },
  { 2456, 0.778955f, -2, -1 },
  { 544, 0.838581f, -1, -2 },
  { 2494, 1.025151f, 1, 4 },
  { 534, 1.006997f, 1, 2 },
  { 4072, 0.902311f, -1, -2 },
  { 477, 0.921990f, -1, -2 },
  { 2331, 1.021998f, 1, 2 },
  { 573, 1.101445f, -1, -2 },
  { 2436, 0.909435f, -2, -1 },
  { 472, 1.509435f, 1, 7 },
  { 1837, 1.498783f, 1, 3 },
  { 501, 1.147048f, 1, -2 },
  { 2099, 1.252273f, -2, -1 },
  { 2465, 1.299480f, 1, 2 },
  { 1257, 1.263424f, -1, -2 },
  { 4975, 0.453158f, -1, -2 },
  { 497, 1.486943f, 1, 4 },
  { 1870, 1.534953f, 1, 2 },
  { 612, 1.052500f, -2, -2 },
  { 2303, 1.610040f, -2, -1 },
  { 473, 1.424913f, 1, 2 },
  { 2465, 1.560246f, -2, -1 },
  { 555, 1.315254f, -1, -2 },
  { 556, 1.660382f, 1, 16 },
  { 2373, 1.128942f, 1, 8 },
  { 526, 0.999284f, 1, 4 },
  { 2283, 0.714703f, 1, 2 },
  { 459, 0.620380f, -1, -2 },
  { 2244, 0.677362f, -2, -1 },
  { 458, 0.889743f, 1, 2 },
  { 2632, 0.781967f, -2, -1 },
  { 504, 0.784757f, -1, -2 },
  { 2169, 1.036406f, 1, 4 },
  { 547, 0.995436f, 1, 2 },
  { 1907, 0.799718f, -2, -1 },
  { 746, 0.849732f, -1, -2 },
  { 1848, 1.052444f, 1, 2 },
  { 426, 0.984445f, -1, -2 },
  { 2407, 0.961210f, -2, -1 },
  { 501, 1.611634f, 1, 8 },
  { 2302, 1.564059f, 1, 4 },
  { 405, 1.144633f, 1, 2 },
  { 2006, 1.002436f, -2, -1 },
  { 536, 0.999215f, -1, -2 },
  { 2337, 1.294948f, 1, 2 },
  { 799, 1.108243f, -1, -2 },
  { 2106, 1.314159f, -2, -1 },
  { 607, 1.356317f, 1, 4 },
  { 1892, 1.542978f, 1, 2 },
  { 1664, 1.643610f, -2, -1 },
  { 2072, 1.402455f, -2, -1 },
  { 603, 1.445552f, 1, 2 },
  { 2442, 1.635428f, -2, -1 },
  { 461, 1.417540f, -1, -2 },
  { 611, 1.557732f, 1, 16 },
  { 2409, 1.021800f, 1, 8 },
  { 560, 0.785890f, 1, 4 },
  { 2139, 0.658485f, 1, 2 },
  { 493, 0.592400f, -1, -2 },
  { 4945, 0.586203f, -1, -2 },
  { 555, 0.813158f, 1, 2 },
  { 2219, 0.833803f, -2, -1 },
  { 581, 0.807250f, -1, -2 },
  { 2417, 0.909034f, 1, 4 },
  { 481, 0.924000f, 1, 2 },
  { 1982, 0.730684f, -2, -1 },
  { 518, 0.812227f, -1, -2 },
  { 2447, 0.918179f, 1, 2 },
  { 745, 0.952309f, -1, -2 },
  { 2344, 0.947902f, -2, -1 },
  { 2287, 1.761783f, 1, 8 },
  { 439, 1.274509f, 1, 4 },
  { 2083, 1.170048f, 1, 2 },
  { 865, 0.984729f, -2, -2 },
  { 2523, 1.163979f, -2, -1 },
  { 555, 1.118347f, 1, 2 },
  { 2482, 1.237651f, -2, -1 },
  { 473, 1.013150f, -1, -2 },
  { 535, 1.902383f, 1, 4 },
  { 2347, 1.487387f, 1, 2 },
  { 1074, 1.165017f, -1, -2 },
  { 2465, 1.239977f, -2, -1 },
  { 454, 1.657345f, 1, 2 },
  { 2426, 1.560170f, -2, -1 },
  { 458, 1.551922f, -1, -2 },
  { 581, 1.653016f, 1, 16 },
  { 2390, 1.007773f, 1, 8 },
  { 599, 0.850355f, 1, 4 },
  { 1851, 0.684219f, 1, 2 },
  { 609, 0.550923f, -1, -2 },
  { 505, 0.720480f, -1, -1 },
  { 524, 0.842467f, 1, 2 },
  { 2070, 0.753940f, -2, -1 },
  { 496, 0.760246f, -1, -2 },
  { 2260, 1.041393f, 1, 4 },
  { 509, 0.999680f, 1, 2 },
  { 2579, 0.811594f, -2, -1 },
  { 718, 0.833937f, -1, -2 },
  { 2326, 1.015060f, 1, 2 },
  { 435, 1.003190f, -1, -2 },
  { 2154, 0.975383f, -2, -1 },
  { 597, 1.388054f, 1, 7 },
  { 2317, 1.496820f, 1, 4 },
  { 942, 0.917784f, 1, 2 },
  { 1276, 0.947753f, -1, -2 },
  { 1914, 1.784217f, -2, -1 },
  { 2284, 1.234873f, -2, 1 },
  { 2427, 1.137029f, -2, -1 },
  { 2331, 2.023576f, 1, 4 },
  { 465, 1.193323f, 1, 2 },
  { 1993, 1.563082f, -2, -1 },
  { 490, 1.357338f, -2, -2 },
  { 588, 1.782125f, 1, 2 },
  { 2142, 1.426879f, -2, -1 },
  { 459, 1.684150f, -1, -2 },
  { 611, 1.653756f, 1, 16 },
  { 2211, 1.179610f, 1, 8 },
  { 551, 0.944546f, 1, 4 },
  { 2145, 0.708099f, 1, 2 },
  { 503, 0.630444f, -1, -2 },
  { 2086, 0.680913f, -2, -1 },
  { 470, 0.930752f, 1, 2 },
  { 2508, 0.812846f, -2, -1 },
  { 680, 0.920535f, -2, -2 },
  { 2431, 1.015343f, 1, 4 },
  { 514, 0.961362f, 1, 2 },
  { 4753, 0.691528f, -1, -2 },
  { 624, 0.906592f, -1, -2 },
  { 2259, 1.007987f, 1, 2 },
  { 768, 0.997005f, -1, -2 },
  { 4815, 0.801496f, -1, -2 },
  { 534, 1.530289f, 1, 8 },
  { 1760, 1.665021f, 1, 4 },
  { 430, 1.232584f, 1, 2 },
  { 2416, 1.089850f, -2, -1 },
  { 496, 1.268637f, -2, -2 },
  { 2283, 1.431948f, 1, 2 },
  { 555, 1.257714f, -1, -2 },
  { 2417, 1.067568f, -2, -1 },
  { 545, 1.602939f, 1, 4 },
  { 2295, 1.818520f, 1, 2 },
  { 2532, 1.828276f, -2, -2 },
  { 1868, 1.685442f, -2, -1 },
  { 469, 1.468964f, 1, 2 },
  { 1815, 1.868034f, -2, -1 },
  { 498, 1.284491f, -1, -2 },
  { 452, 1.739124f, 1, 16 },
  { 2413, 1.070665f, 1, 8 },
  { 582, 0.903764f, 1, 4 },
  { 1830, 0.777633f, 1, 2 },
  { 443, 0.675017f, -1, -2 },
  { 2241, 0.735869f, -2, -1 },
  { 524, 0.907552f, 1, 2 },
  { 1827, 0.848583f, -2, -1 },
  { 526, 0.885424f, -1, -2 },
  { 2260, 1.014323f, 1, 4 },
  { 410, 0.960104f, 1, 2 },
  { 3560, 0.952218f, -1, -2 },
  { 435, 0.905010f, -1, -2 },
  { 2282, 1.039474f, 1, 2 },
  { 475, 1.128169f, -1, -2 },
  { 2473, 0.951269f, -2, -1 },
  { 417, 1.668735f, 1, 8 },
  { 2283, 1.448981f, 1, 4 },
  { 724, 0.931865f, 1, 2 },
  { 2478, 1.009545f, -2, -1 },
  { 454, 1.138393f, -1, -2 },
  { 2405, 1.448598f, 1, 2 },
  { 508, 1.290972f, -1, -2 },
  { 1714, 1.209748f, -2, -1 },
  { 536, 1.641795f, 1, 4 },
  { 1779, 1.655316f, 1, 2 },
  { 1841, 1.947357f, -2, -1 },
  { 2303, 1.679321f, -2, -1 },
  { 649, 1.434152f, 1, 2 },
  { 2032, 1.857825f, -2, -1 },
  { 569, 1.174225f, -1, -2 },
  { 452, 1.757543f, 1, 16 },
  { 2476, 1.025106f, 1, 8 },
  { 528, 0.914361f, 1, 4 },
  { 2492, 0.664837f, 1, 2 },
  { 473, 0.574109f, -1, -2 },
  { 2465, 0.639646f, -2, -1 },
  { 641, 0.813005f, 1, 2 },
  { 1918, 0.837609f, -2, -1 },
  { 489, 0.867595f, -2, -2 },
  { 2318, 0.977006f, 1, 4 },
  { 946, 0.897187f, 1, 2 },
  { 4336, 0.826887f, -1, -2 },
  { 642, 0.867053f, -1, -2 },
  { 4953, 0.648148f, 1, 2 },
  { 4925, 0.727228f, -1, -2 },
  { 159, -3.034958f, -1, -2 },
  { 486, 1.552343f, 1, 8 },
  { 2273, 1.440637f, 1, 4 },
  { 803, 0.995696f, 1, 2 },
  { 1846, 1.278069f, -2, -1 },
  { 2465, 2.703506f, -2, -2 },
  { 2239, 1.295162f, 1, 2 },
  { 735, 1.059445f, -1, -2 },
  { 2384, 1.265402f, -2, -1 },
  { 562, 1.622694f, 1, 4 },
  { 1614, 1.686690f, 1, 2 },
  { 405, 1.132251f, -1, -2 },
  { 2500, 1.369982f, -2, -1 },
  { 577, 1.526806f, 1, 2 },
  { 2329, 1.823037f, -2, -1 },
  { 483, 1.479210f, -2, -2 },
  { 569, 1.710209f, 1, 16 },
  { 2475, 1.005370f, 1, 8 },
  { 492, 0.928728f, 1, 4 },
  { 2528, 0.669235f, 1, 2 },
  { 363, 0.637990f, -1, -2 },
  { 5101, 0.342052f, -1, -2 },
  { 420, 0.821909f, 1, 2 },
  { 2311, 0.757683f, -2, -1 },
  { 463, 0.834730f, -1, -2 },
  { 2493, 1.011668f, 1, 4 },
  { 546, 0.961092f, 1, 2 },
  { 4118, 0.898686f, -1, -2 },
  { 689, 0.892880f, -1, -2 },
  { 4849, 0.720674f, 1, 2 },
  { 2458, 0.930771f, -2, -1 },
  { 1777, 1.610350f, -2, -1 },
  { 482, 1.539934f, 1, 8 },
  { 2395, 1.303405f, 1, 4 },
  { 463, 1.091992f, 1, 2 },
  { 2352, 1.318150f, -1, -1 },
  { 526, 1.014317f, -2, -2 },
  { 2503, 1.211987f, 1, 2 },
  { 3660, 0.670492f, -2, -2 },
  { 2326, 1.279079f, -2, -1 },
  { 437, 1.615822f, 1, 4 },
  { 1714, 1.721411f, 1, 2 },
  { 1130, 1.077803f, -1, -2 },
  { 1784, 1.730365f, -2, -1 },
  { 593, 1.300296f, 1, 2 },
  { 1775, 1.767915f, -2, -1 },
  { 567, 1.354020f, -1, -2 },
  { 565, 1.588769f, 1, 16 },
  { 2469, 1.058038f, 1, 8 },
  { 487, 0.930490f, 1, 4 },
  { 2503, 0.703969f, 1, 2 },
  { 444, 0.638799f, -1, -2 },
  { 1693, 0.854975f, -1, -1 },
  { 410, 0.886333f, 1, 2 },
  { 2597, 0.834254f, -2, -1 },
  { 549, 0.887600f, -2, -2 },
  { 2380, 0.980581f, 1, 4 },
  { 1074, 0.885522f, 1, 2 },
  { 4205, 0.818694f, -1, -2 },
  { 382, 0.825047f, -1, -2 },
  { 2231, 0.983740f, 1, 2 },
  { 567, 0.995837f, -1, -2 },
  { 4887, 0.740988f, -1, -2 },
  { 615, 1.522067f, 1, 8 },
  { 1804, 1.585218f, 1, 4 },
  { 469, 1.099100f, 1, 2 },
  { 2419, 1.052622f, -2, -1 },
  { 1657, 2.180311f, -2, -1 },
  { 2274, 1.438761f, 1, 2 },
  { 476, 1.231329f, -1, -2 },
  { 2440, 1.211636f, -2, -1 },
  { 1851, 2.198062f, 1, 4 },
  { 450, 1.197943f, 1, 2 },
  { 2332, 1.625932f, -2, -1 },
  { 590, 1.061845f, -1, -2 },
  { 537, 1.848473f, 1, 2 },
  { 2025, 1.605788f, -2, -1 },
  { 471, 1.791566f, -1, -2 },
  { 630, 1.673074f, 1, 16 },
  { 2382, 1.103731f, 1, 8 },
  { 484, 0.929928f, 1, 4 },
  { 2390, 0.701589f, 1, 2 },
  { 515, 0.625420f, -1, -2 },
  { 1820, 0.725410f, -2, -1 },
  { 430, 0.871244f, 1, 2 },
  { 2042, 0.833192f, -2, -1 },
  { 403, 0.809403f, -1, -2 },
  { 2354, 1.023092f, 1, 4 },
  { 535, 0.973737f, 1, 2 },
  { 2324, 0.863644f, -2, -1 },
  { 585, 0.924226f, -1, -2 },
  { 2224, 0.976966f, 1, 2 },
  { 952, 0.907639f, -1, -2 },
  { 4927, 0.694950f, -1, -2 },
  { 2323, 1.824618f, 1, 7 },
  { 574, 1.185031f, 1, 3 },
  { 1734, 1.221861f, -2, 1 },
  { 1236, 1.685900f, -1, -1 },
  { 668, 1.125776f, 1, 2 },
  { 1840, 1.387963f, -2, -1 },
  { 550, 1.115926f, -1, -2 },
  { 520, 1.815199f, 1, 4 },
  { 2387, 1.456365f, 1, 2 },
  { 3315, 1.300123f, -1, -2 },
  { 2520, 1.254152f, -2, -1 },
  { 587, 1.637982f, 1, 2 },
  { 1855, 1.597858f, -2, -1 },
  { 419, 1.641881f, -1, -2 },
  { 467, 1.719836f, 1, 16 },
  { 2453, 1.037471f, 1, 8 },
  { 558, 0.877236f, 1, 4 },
  { 2561, 0.645246f, 1, 2 },
  { 450, 0.572511f, -1, -2 },
  { 2333, 0.652803f, -2, -1 },
  { 435, 0.875620f, 1, 2 },
  { 2274, 0.787012f, -2, -1 },
  { 676, 0.855796f, -2, -2 },
  { 2490, 0.987375f, 1, 4 },
  { 504, 0.900592f, 1, 2 },
  { 4695, 0.034294f, -2, -1 },
  { 447, 0.877106f, -1, -2 },
  { 2519, 0.923278f, 1, 2 },
  { 567, 0.899679f, -1, -2 },
  { 2393, 0.969594f, -2, -1 },
  { 582, 1.542481f, 1, 7 },
  { 2435, 1.284118f, 1, 3 },
  { 565, 0.944489f, -1, 1 },
  { 427, 1.034026f, -1, -2 },
  { 2587, 1.125545f, 1, 2 },
  { 4571, 0.494243f, -2, -2 },
  { 2332, 1.365768f, -2, -1 },
  { 496, 1.531157f, 1, 4 },
  { 2181, 1.473617f, 1, 2 },
  { 408, 1.312882f, -2, -2 },
  { 1784, 1.628317f, -2, -1 },
  { 548, 1.331749f, 1, 2 },
  { 1599, 1.608783f, -2, -1 },
  { 585, 1.467976f, -2, -2 },
  { 638, 1.671081f, 1, 16 },
  { 2438, 1.037709f, 1, 8 },
  { 439, 0.932335f, 1, 4 },
  { 2194, 0.749907f, 1, 2 },
  { 452, 0.668084f, -1, -2 },
  { 2377, 0.691901f, -2, -1 },
  { 424, 0.911311f, 1, 2 },
  { 2292, 0.885943f, -2, -1 },
  { 482, 0.863397f, -1, -2 },
  { 2440, 0.979617f, 1, 4 },
  { 575, 0.940828f, 1, 2 },
  { 2325, 0.831609f, -2, -1 },
  { 366, 0.759676f, -1, -2 },
  { 2412, 0.969559f, 1, 2 },
  { 528, 0.970966f, -1, -2 },
  { 2475, 0.884075f, -2, -1 },
  { 551, 1.572738f, 1, 8 },
  { 2224, 1.471741f, 1, 4 },
  { 562, 0.895544f, 1, 2 },
  { 2930, 0.992125f, -1, -1 },
  { 901, 0.849739f, -2, -2 },
  { 2065, 1.252767f, 1, 2 },
  { 510, 1.438517f, -2, -2 },
  { 2444, 1.279520f, -2, -1 },
  { 463, 1.639197f, 1, 4 },
  { 1838, 1.635152f, 1, 2 },
  { 532, 1.194518f, -1, -2 },
  { 2186, 1.550086f, -2, -1 },
  { 395, 1.416252f, 1, 2 },
  { 2039, 1.724965f, -2, -1 },
  { 534, 1.293460f, -1, -2 },
  { 564, 1.690989f, 1, 16 },
  { 2345, 1.119001f, 1, 8 },
  { 516, 0.987387f, 1, 4 },
  { 2345, 0.745338f, 1, 2 },
  { 600, 0.647045f, -1, -2 },
  { 2412, 0.712523f, -2, -1 },
  { 597, 0.854609f, 1, 2 },
  { 1885, 0.887263f, -2, -1 },
  { 536, 0.798107f, -1, -2 },
  { 2465, 0.996610f, 1, 4 },
  { 571, 1.012682f, 1, 2 },
  { 3791, 0.900375f, -1, -2 },
  { 536, 0.828261f, -1, -2 },
  { 2306, 0.985203f, 1, 2 },
  { 568, 0.976471f, -1, -2 },
  { 2225, 0.959531f, -2, -1 },
  { 606, 1.511694f, 1, 8 },
  { 2274, 1.445350f, 1, 4 },
  { 480, 1.101447f, 1, 2 },
  { 1836, 1.172804f, -2, -1 },
  { 464, 0.995150f, -1, -2 },
  { 2209, 1.362742f, 1, 2 },
  { 1937, 1.738656f, -2, -1 },
  { 4890, 0.845521f, -1, -2 },
  { 473, 1.441239f, 1, 4 },
  { 1737, 1.756173f, 1, 2 },
  { 2056, 1.630597f, -2, -1 },
  { 1864, 1.546405f, -2, -1 },
  { 466, 1.455200f, 1, 2 },
  { 2389, 1.611621f, -2, -1 },
  { 607, 1.344629f, -1, -2 },
  { 447, 1.691453f, 1, 16 },
  { 2376, 1.040786f, 1, 8 },
  { 478, 0.893047f, 1, 4 },
  { 2199, 0.678170f, 1, 2 },
  { 451, 0.586453f, -1, -2 },
  { 2587, 0.636424f, -2, -1 },
  { 424, 0.896915f, 1, 2 },
  { 1912, 0.838720f, -2, -1 },
  { 398, 0.761791f, -1, -2 },
  { 2219, 1.033887f, 1, 4 },
  { 655, 0.958324f, 1, 2 },
  { 2540, 0.735129f, -2, -1 },
  { 537, 0.909221f, -1, -2 },
  { 2433, 0.943178f, 1, 2 },
  { 650, 0.997851f, -1, -2 },
  { 2430, 0.914140f, -2, -1 },
  { 2369, 1.849778f, 1, 6 },
  { 582, 1.142274f, 1, 3 },
  { 2296, 1.108656f, -2, 1 },
  { 2803, 0.947841f, -2, -1 },
  { 482, 1.075624f, -1, 1 },
  { 531, 1.343911f, -2, -2 },
  { 541, 1.924911f, 1, 4 },
  { 2375, 1.386465f, 1, 2 },
  { 4818, -0.053262f, -2, -2 },
  { 2339, 1.337477f, -2, -1 },
  { 446, 1.652362f, 1, 2 },
  { 1775, 1.641854f, -2, -1 },
  { 555, 1.641133f, -1, -2 },
  { 440, 1.674099f, 1, 16 },
  { 2397, 1.032043f, 1, 8 },
  { 549, 0.860744f, 1, 4 },
  { 1789, 0.729587f, 1, 2 },
  { 513, 0.662487f, -1, -2 },
  { 1827, 0.702589f, -2, -1 },
  { 531, 0.868560f, 1, 2 },
  { 2419, 0.799290f, -2, -1 },
  { 483, 0.831426f, -2, -2 },
  { 2308, 1.015238f, 1, 4 },
  { 513, 0.924137f, 1, 2 },
  { 2339, 0.782368f, -2, -1 },
  { 531, 0.866517f, -1, -2 },
  { 2550, 0.922959f, 1, 2 },
  { 561, 1.020829f, -1, -2 },
  { 2382, 0.936440f, -2, -1 },
  { 586, 1.458110f, 1, 8 },
  { 1988, 1.568275f, 1, 4 },
  { 383, 1.198525f, 1, 2 },
  { 1879, 1.075003f, -2, -1 },
  { 549, 0.886836f, -1, -2 },
  { 1888, 1.339687f, 1, 2 },
  { 370, 1.252466f, -1, -2 },
  { 1960, 1.195598f, -2, -1 },
  { 2380, 1.899009f, 1, 4 },
  { 653, 1.101418f, 1, 2 },
  { 1895, 1.196245f, -2, -1 },
  { 500, 1.301447f, -1, -2 },
  { 513, 1.770907f, 1, 2 },
  { 2427, 1.540980f, -2, -1 },
  { 444, 1.733086f, -1, -2 },
  { 570, 1.656523f, 1, 16 },
  { 2424, 1.107267f, 1, 8 },
  { 559, 0.939652f, 1, 4 },
  { 2241, 0.779347f, 1, 2 },
  { 593, 0.652931f, -1, -2 },
  { 2180, 0.723404f, -2, -1 },
  { 632, 0.843044f, 1, 2 },
  { 1721, 0.844141f, -2, -1 },
  { 554, 0.890511f, -2, -2 },
  { 2462, 0.984446f, 1, 4 },
  { 570, 0.935315f, 1, 2 },
  { 2327, 0.768680f, -2, -1 },
  { 613, 0.896402f, -1, -2 },
  { 2483, 0.995244f, 1, 2 },
  { 460, 1.101527f, -1, -2 },
  { 2428, 1.029200f, -2, -1 },
  { 514, 1.455267f, 1, 7 },
  { 2362, 1.265262f, 1, 3 },
  { 1754, 1.779048f, 1, -1 },
  { 2114, 1.515214f, -2, -2 },
  { 1756, 1.433449f, 1, 2 },
  { 3385, 1.082061f, -1, -2 },
  { 2152, 1.232062f, -2, -1 },
  { 478, 1.607711f, 1, 4 },
  { 1843, 1.890946f, 1, 2 },
  { 683, 1.111460f, -1, -2 },
  { 2592, 1.505769f, -2, -1 },
  { 2349, 2.244852f, 1, 2 },
  { 482, 1.315390f, -1, -2 },
  { 625, 1.861319f, -1, -2 },
  { 567, 1.600324f, 1, 16 },
  { 2397, 1.032043f, 1, 8 },
  { 526, 0.952222f, 1, 4 },
  { 2480, 0.693246f, 1, 2 },
  { 606, 0.610242f, -1, -2 },
  { 4650, 0.637131f, -1, -2 },
  { 505, 0.896930f, 1, 2 },
  { 2247, 0.891237f, -2, -1 },
  { 407, 0.814355f, -1, -2 },
  { 2391, 0.934602f, 1, 4 },
  { 689, 0.860552f, 1, 2 },
  { 2400, 0.749836f, -2, -1 },
  { 667, 0.848470f, -1, -2 },
  { 2399, 0.948607f, 1, 2 },
  { 413, 1.044214f, -1, -2 },
  { 2364, 0.942640f, -2, -1 },
  { 493, 1.571258f, 1, 8 },
  { 1992, 1.513638f, 1, 4 },
  { 453, 1.058552f, 1, 2 },
  { 1799, 1.207909f, -2, -1 },
  { 411, 1.124229f, -1, -2 },
  { 2507, 1.247869f, 1, 2 },
  { 524, 1.159058f, -1, -2 },
  { 2119, 1.081507f, -2, -1 },
  { 508, 1.490531f, 1, 4 },
  { 1857, 1.881555f, 1, 2 },
  { 666, 1.083224f, -1, -2 },
  { 2373, 1.275101f, -2, -1 },
  { 2377, 2.011458f, 1, 2 },
  { 428, 1.156112f, -1, -2 },
  { 440, 1.885508f, -1, -2 },
  { 561, 1.655958f, 1, 16 },
  { 2416, 1.023757f, 1, 8 },
  { 680, 0.886368f, 1, 4 },
  { 2156, 0.667604f, 1, 2 },
  { 643, 0.601227f, -1, -2 },
  { 2460, 0.678736f, -2, -1 },
  { 585, 0.805746f, 1, 2 },
  { 2348, 0.731028f, -2, -1 },
  { 505, 0.732504f, -1, -2 },
  { 2405, 0.934024f, 1, 4 },
  { 672, 0.829835f, 1, 2 },
  { 3275, 0.952372f, -1, -2 },
  { 531, 0.839213f, -1, -2 },
  { 2431, 0.965500f, 1, 2 },
  { 622, 1.018067f, -1, -2 },
  { 2440, 0.828916f, -2, -1 },
  { 501, 1.534373f, 1, 8 },
  { 1863, 1.694156f, 1, 4 },
  { 601, 0.945835f, 1, 2 },
  { 2351, 1.190254f, -2, -1 },
  { 1776, 1.918957f, -2, -1 },
  { 2394, 1.339074f, 1, 2 },
  { 383, 1.376795f, -1, -2 },
  { 2336, 1.177352f, -2, -1 },
  { 612, 1.414236f, 1, 4 },
  { 1853, 1.780261f, 1, 2 },
  { 452, 1.124764f, -1, -2 },
  { 1803, 1.631924f, -2, -1 },
  { 2277, 2.074458f, 1, 2 },
  { 427, 1.272967f, -2, -2 },
  { 455, 1.938531f, -1, -2 },
  { 612, 1.718179f, 1, 16 },
  { 2460, 1.097455f, 1, 8 },
  { 447, 0.904534f, 1, 4 },
  { 2280, 0.683017f, 1, 2 },
  { 638, 0.595510f, -1, -2 },
  { 2347, 0.641188f, -2, -1 },
  { 558, 0.894048f, 1, 2 },
  { 1825, 0.804355f, -2, -1 },
  { 555, 0.944005f, -2, -2 },
  { 2339, 1.016312f, 1, 4 },
  { 442, 0.958997f, 1, 2 },
  { 3856, 0.804718f, -1, -2 },
  { 723, 0.884222f, -1, -2 },
  { 2409, 0.985397f, 1, 2 },
  { 421, 1.008716f, -1, -2 },
  { 2281, 1.020916f, -2, -1 },
  { 579, 1.555852f, 1, 8 },
  { 1824, 1.653203f, 1, 4 },
  { 471, 1.102763f, 1, 2 },
  { 1816, 1.538282f, -1, -1 },
  { 1015, 1.070917f, -1, -2 },
  { 2292, 1.347890f, 1, 2 },
  { 710, 1.373039f, -1, -2 },
  { 4916, 0.947560f, -1, -2 },
  { 464, 1.434257f, 1, 4 },
  { 1994, 1.677654f, 1, 2 },
  { 2531, 1.801413f, -2, -1 },
  { 1960, 1.582872f, -2, -1 },
  { 538, 1.258993f, 1, 2 },
  { 2370, 1.391661f, -2, -1 },
  { 508, 1.657388f, -2, -2 },
  { 565, 1.618871f, 1, 16 },
  { 2360, 1.062867f, 1, 8 },
  { 553, 0.931856f, 1, 4 },
  { 2257, 0.686584f, 1, 2 },
  { 328, 0.600127f, -1, -2 },
  { 2603, 0.647927f, -2, -1 },
  { 480, 0.937166f, 1, 2 },
  { 2094, 0.867418f, -2, -1 },
  { 374, 0.858362f, -2, -2 },
  { 2395, 0.971265f, 1, 4 },
  { 493, 0.966831f, 1, 2 },
  { 3631, 1.173204f, -1, -2 },
  { 408, 0.896850f, -1, -2 },
  { 2300, 0.988424f, 1, 2 },
  { 468, 1.012002f, -1, -2 },
  { 4959, 0.746824f, -1, -2 },
  { 466, 1.500420f, 1, 7 },
  { 1715, 1.556511f, 1, 4 },
  { 1047, 0.940990f, 1, 2 },
  { 1790, 1.199015f, -2, -1 },
  { 696, 0.944180f, -1, -2 },
  { 2288, 1.064781f, -2, 1 },
  { 4879, 0.844368f, -1, -2 },
  { 1834, 2.034401f, 1, 3 },
  { 529, 1.055441f, -1, 1 },
  { 403, 1.287817f, -1, -2 },
  { 614, 1.694914f, 1, 2 },
  { 2386, 1.538764f, -2, -1 },
  { 411, 1.859105f, -1, -2 },
  { 598, 1.662129f, 1, 16 },
  { 2444, 1.001743f, 1, 8 },
  { 589, 0.830184f, 1, 4 },
  { 1773, 0.703137f, 1, 2 },
  { 315, 0.624093f, -1, -2 },
  { 5028, 0.508969f, -1, -2 },
  { 555, 0.903029f, 1, 2 },
  { 2295, 0.902868f, -2, -1 },
  { 648, 0.743384f, -1, -2 },
  { 2365, 1.032284f, 1, 4 },
  { 601, 0.942335f, 1, 2 },
  { 2410, 0.781157f, -2, -1 },
  { 505, 0.874741f, -1, -2 },
  { 2504, 0.918059f, 1, 2 },
  { 1012, 0.928678f, -1, -2 },
  { 2378, 0.892046f, -2, -1 },
  { 481, 1.552104f, 1, 8 },
  { 1913, 1.481364f, 1, 4 },
  { 516, 1.121573f, 1, 2 },
  { 2214, 1.038068f, -2, -1 },
  { 1859, 2.128541f, -2, -1 },
  { 2490, 1.175639f, 1, 2 },
  { 1166, 1.132993f, -1, -2 },
  { 1992, 1.457785f, -2, -1 },
  { 393, 1.317711f, 1, 3 },
  { 2422, 1.378954f, -2, 1 },
  { 2275, 1.470596f, -2, -1 },
  { 534, 1.468389f, 1, 2 },
  { 1870, 1.811434f, -2, -1 },
  { 617, 1.092882f, -1, -2 },
  { 592, 1.598683f, 1, 16 },
  { 2409, 0.984760f, 1, 8 },
  { 517, 0.794596f, 1, 4 },
  { 2498, 0.644853f, 1, 2 },
  { 449, 0.580827f, -1, -2 },
  { 2563, 0.656980f, -2, -1 },
  { 595, 0.780125f, 1, 2 },
  { 2662, 0.745689f, -2, -1 },
  { 596, 0.799853f, -2, -2 },
  { 2526, 0.902134f, 1, 4 },
  { 458, 0.979882f, 1, 2 },
  { 3773, 0.843911f, -1, -2 },
  { 412, 0.855727f, -1, -2 },
  { 2240, 0.974193f, 1, 2 },
  { 498, 0.998517f, -1, -2 },
  { 2567, 0.912363f, -2, -1 },
  { 2143, 1.879970f, 1, 8 },
  { 451, 1.212370f, 1, 4 },
  { 2614, 1.216585f, 1, 2 },
  { 1444, 1.570846f, -2, -2 },
  { 3930, 0.586631f, -2, -1 },
  { 498, 1.306959f, 1, 2 },
  { 1851, 1.484000f, -2, -1 },
  { 540, 1.059464f, -1, -2 },
  { 548, 1.858085f, 1, 4 },
  { 2428, 1.330076f, 1, 2 },
  { 4654, 0.438052f, -1, -2 },
  { 1924, 1.474807f, -2, -1 },
  { 476, 1.743028f, 1, 2 },
  { 2566, 1.710382f, -2, -1 },
  { 488, 1.496749f, -1, -2 },
  { 561, 1.651772f, 1, 16 },
  { 2373, 1.098634f, 1, 8 },
  { 520, 0.966498f, 1, 4 },
  { 2112, 0.824109f, 1, 2 },
  { 500, 0.663431f, -1, -2 },
  { 2346, 0.671303f, -2, -1 },
  { 567, 0.851813f, 1, 2 },
  { 2616, 0.721898f, -2, -1 },
  { 378, 0.846740f, -1, -2 },
  { 2484, 0.949156f, 1, 4 },
  { 560, 0.962709f, 1, 2 },
  { 3954, 1.073791f, -1, -2 },
  { 432, 0.867636f, -1, -2 },
  { 2448, 0.997156f, 1, 2 },
  { 562, 0.927776f, -1, -2 },
  { 2321, 0.975158f, -2, -1 },
  { 471, 1.450677f, 1, 7 },
  { 1680, 1.495395f, 1, 3 },
  { 609, 0.866617f, -1, 1 },
  { 2061, 2.193997f, -2, -1 },
  { 2287, 1.282477f, 1, 2 },
  { 541, 1.288702f, -1, -2 },
  { 2329, 1.228725f, -2, -1 },
  { 575, 1.370625f, 1, 4 },
  { 2450, 1.522694f, 1, 2 },
  { 645, 1.142691f, -1, -2 },
  { 1909, 1.330925f, -2, -1 },
  { 2279, 2.050149f, 1, 2 },
  { 427, 1.271930f, -2, -2 },
  { 597, 1.865360f, -1, -2 },
  { 588, 1.649235f, 1, 16 },
  { 2293, 1.055376f, 1, 8 },
  { 558, 0.928568f, 1, 4 },
  { 2511, 0.666043f, 1, 2 },
  { 458, 0.605237f, -1, -2 },
  { 1845, 0.744658f, -1, -1 },
  { 476, 0.773704f, 1, 2 },
  { 2425, 0.887547f, -2, -1 },
  { 575, 0.685975f, -1, -2 },
  { 2325, 1.011259f, 1, 4 },
  { 618, 0.997669f, 1, 2 },
  { 3223, 1.004620f, -1, -2 },
  { 486, 0.934465f, -1, -2 },
  { 2483, 0.953991f, 1, 2 },
  { 566, 0.992048f, -1, -2 },
  { 2456, 0.895373f, -2, -1 },
  { 570, 1.508557f, 1, 8 },
  { 2443, 1.533172f, 1, 4 },
  { 576, 1.237265f, 1, 2 },
  { 2319, 1.013650f, -2, -1 },
  { 1133, 0.901159f, -2, -2 },
  { 2479, 1.231833f, 1, 2 },
  { 2231, 1.249954f, -2, -1 },
  { 2539, 1.060624f, -2, -1 },
  { 609, 1.471871f, 1, 4 },
  { 1864, 1.755167f, 1, 2 },
  { 457, 1.225184f, -1, -2 },
  { 2283, 1.397663f, -2, -1 },
  { 498, 1.287639f, 1, 2 },
  { 2418, 1.488978f, -2, -1 },
  { 475, 1.374996f, -1, -2 },
  { 435, 1.653684f, 1, 16 },
  { 2387, 0.982469f, 1, 8 },
  { 687, 0.832569f, 1, 4 },
  { 2569, 0.626312f, 1, 2 },
  { 363, 0.587700f, -1, -2 },
  { 4429, 0.662466f, -1, -2 },
  { 590, 0.793465f, 1, 2 },
  { 2582, 0.737660f, -2, -1 },
  { 390, 0.735601f, -1, -2 },
  { 2375, 0.998240f, 1, 4 },
  { 438, 0.933356f, 1, 2 },
  { 2381, 0.714577f, -2, -1 },
  { 544, 0.868603f, -1, -2 },
  { 2416, 0.980812f, 1, 2 },
  { 980, 0.989604f, -1, -2 },
  { 4836, 0.796177f, -1, -2 },
  { 508, 1.490655f, 1, 6 },
  { 2428, 1.182227f, 1, 2 },
  { 497, 1.097416f, -1, -2 },
  { 2579, 1.063281f, 1, 2 },
  { 933, 1.041930f, -1, -2 },
  { 2399, 1.285175f, -2, -1 },
  { 585, 1.493452f, 1, 4 },
  { 2183, 1.682881f, 1, 2 },
  { 421, 1.077069f, -1, -2 },
  { 2414, 1.162824f, -2, -1 },
  { 2341, 2.095671f, 1, 2 },
  { 471, 1.283386f, -1, -2 },
  { 557, 1.790307f, -1, -2 },
  { 559, 1.583391f, 1, 16 },
  { 2405, 1.006383f, 1, 8 },
  { 514, 0.909115f, 1, 4 },
  { 1857, 0.802038f, 1, 2 },
  { 469, 0.669602f, -1, -2 },
  { 2498, 0.657361f, -2, -1 },
  { 468, 0.835642f, 1, 2 },
  { 2410, 0.748910f, -2, -1 },
  { 441, 0.809283f, -1, -2 },
  { 2248, 1.002054f, 1, 4 },
  { 416, 0.887385f, 1, 2 },
  { 3583, 0.957631f, -1, -2 },
  { 609, 0.850065f, -1, -2 },
  { 2555, 0.895871f, 1, 2 },
  { 606, 1.055911f, -1, -2 },
  { 2451, 0.893327f, -2, -1 },
  { 470, 1.565512f, 1, 8 },
  { 1849, 1.643440f, 1, 4 },
  { 605, 1.045514f, 1, 2 },
  { 2289, 1.079106f, -2, -1 },
  { 575, 1.025001f, -1, -2 },
  { 2372, 1.254089f, 1, 2 },
  { 1090, 1.110978f, -2, -2 },
  { 4733, 0.971004f, -1, -2 },
  { 452, 1.507872f, 1, 4 },
  { 1808, 1.698805f, 1, 2 },
  { 1890, 1.924115f, -2, -1 },
  { 2695, 1.069752f, -2, -1 },
  { 570, 1.593923f, 1, 2 },
  { 2280, 1.944722f, -2, -1 },
  { 474, 1.441251f, -1, -2 },
  { 545, 1.613780f, 1, 16 },
  { 2472, 1.003471f, 1, 8 },
  { 583, 0.887156f, 1, 4 },
  { 1816, 0.713781f, 1, 2 },
  { 339, 0.609984f, -1, -2 },
  { 2541, 0.652676f, -2, -1 },
  { 517, 0.724461f, 1, 2 },
  { 1798, 0.885711f, -1, -1 },
  { 555, 0.922585f, -2, -2 },
  { 2382, 0.938077f, 1, 4 },
  { 460, 0.920253f, 1, 2 },
  { 688, 1.009008f, -1, -2 },
  { 594, 0.839687f, -1, -2 },
  { 4921, 0.665673f, 1, 2 },
  { 2344, 0.951282f, -2, -1 },
  { 140, -2.434069f, -1, -2 },
  { 454, 1.491669f, 1, 7 },
  { 2197, 1.467844f, 1, 4 },
  { 597, 1.044716f, 1, 2 },
  { 4826, 0.040363f, -2, -1 },
  { 617, 1.088941f, -1, -2 },
  { 2611, 0.970615f, -2, 1 },
  { 2603, 1.053879f, -2, -1 },
  { 1939, 2.051854f, 1, 4 },
  { 542, 1.187365f, 1, 2 },
  { 1988, 1.417831f, -2, -1 },
  { 668, 0.947430f, -1, -2 },
  { 561, 1.760665f, 1, 2 },
  { 1850, 1.783239f, -2, -1 },
  { 646, 1.711106f, -1, -2 },
  { 494, 1.741649f, 1, 16 },
  { 2404, 1.004255f, 1, 8 },
  { 564, 0.830940f, 1, 4 },
  { 2287, 0.688018f, 1, 2 },
  { 340, 0.635553f, -1, -2 },
  { 2502, 0.589073f, -2, -1 },
  { 489, 0.853690f, 1, 2 },
  { 2618, 0.765615f, -2, -1 },
  { 423, 0.817611f, -1, -2 },
  { 2369, 0.928082f, 1, 4 },
  { 564, 0.865320f, 1, 2 },
  { 3806, 0.846240f, -1, -2 },
  { 537, 0.870473f, -1, -2 },
  { 2433, 0.960428f, 1, 2 },
  { 442, 1.043530f, -1, -2 },
  { 2469, 0.944934f, -2, -1 },
  { 638, 1.439931f, 1, 7 },
  { 2282, 1.320421f, 1, 3 },
  { 562, 0.939179f, -1, 1 },
  { 475, 1.139153f, -2, -2 },
  { 2379, 1.354836f, 1, 2 },
  { 921, 1.107187f, -1, -2 },
  { 2150, 1.149850f, -2, -1 },
  { 560, 1.623176f, 1, 4 },
  { 1817, 1.855876f, 1, 2 },
  { 391, 1.220718f, -1, -2 },
  { 2355, 1.429689f, -2, -1 },
  { 644, 1.252034f, 1, 2 },
  { 1779, 1.818225f, -2, -1 },
  { 545, 1.351503f, -1, -2 },
  { 564, 1.689157f, 1, 16 },
  { 2417, 1.089765f, 1, 8 },
  { 524, 0.961670f, 1, 4 },
  { 2256, 0.701590f, 1, 2 },
  { 512, 0.605354f, -1, -2 },
  { 2271, 0.657922f, -2, -1 },
  { 1028, 0.899880f, 1, 2 },
  { 1634, 0.913803f, -2, -1 },
  { 522, 0.877010f, -1, -2 },
  { 2260, 1.135012f, 1, 4 },
  { 525, 1.033969f, 1, 2 },
  { 3502, 1.107393f, -1, -2 },
  { 564, 0.944645f, -1, -2 },
  { 2258, 1.051033f, 1, 2 },
  { 737, 1.068709f, -1, -2 },
  { 4913, 0.755910f, -1, -2 },
  { 467, 1.491099f, 1, 8 },
  { 1889, 1.364496f, 1, 4 },
  { 1735, 1.558971f, 1, 2 },
  { 523, 0.989023f, -1, -2 },
  { 1893, 1.415218f, -2, -1 },
  { 1707, 1.202694f, 1, 2 },
  { 1479, 1.430986f, -2, -2 },
  { 5082, 0.299546f, -1, -2 },
  { 2208, 2.020172f, 1, 4 },
  { 629, 1.263325f, 1, 2 },
  { 2178, 1.649476f, -2, -1 },
  { 542, 1.213120f, -2, -2 },
  { 597, 1.750620f, 1, 2 },
  { 1737, 1.680090f, -2, -1 },
  { 705, 1.570104f, -1, -2 },
  { 610, 1.578958f, 1, 16 },
  { 2436, 1.044223f, 1, 8 },
  { 536, 0.995492f, 1, 4 },
  { 2240, 0.808957f, 1, 2 },
  { 474, 0.673055f, -1, -2 },
  { 1923, 0.741827f, -2, -1 },
  { 419, 0.779403f, 1, 2 },
  { 3457, 0.548712f, -1, -1 },
  { 484, 0.860712f, -1, -2 },
  { 2586, 0.924181f, 1, 4 },
  { 1002, 0.912170f, 1, 2 },
  { 4079, 0.839614f, -1, -2 },
  { 658, 0.906961f, -1, -2 },
  { 2408, 0.955994f, 1, 2 },
  { 523, 0.980193f, -1, -2 },
  { 2410, 0.922169f, -2, -1 },
  { 562, 1.535448f, 1, 8 },
  { 1856, 1.505205f, 1, 4 },
  { 590, 0.990644f, 1, 2 },
  { 3826, 0.581635f, -1, -1 },
  { 722, 0.943417f, -1, -2 },
  { 2633, 1.209236f, 1, 2 },
  { 553, 1.395574f, -1, -2 },
  { 2535, 1.129866f, -2, -1 },
  { 441, 1.450690f, 1, 4 },
  { 2080, 1.629586f, 1, 2 },
  { 5033, -1.394753f, -2, -2 },
  { 1617, 1.487185f, -2, -1 },
  { 609, 1.422632f, 1, 2 },
  { 1578, 1.890799f, -2, -1 },
  { 2279, 2.113203f, -2, -2 },
  { 616, 1.592060f, 1, 16 },
  { 2537, 0.948025f, 1, 8 },
  { 528, 0.878601f, 1, 4 },
  { 2266, 0.672759f, 1, 2 },
  { 482, 0.612513f, -1, -2 },
  { 2492, 0.625506f, -2, -1 },
  { 521, 0.765580f, 1, 2 },
  { 2331, 0.652503f, -2, -1 },
  { 617, 0.837115f, -2, -2 },
  { 2349, 0.912609f, 1, 4 },
  { 703, 0.847470f, 1, 2 },
  { 2280, 0.702813f, -2, -1 },
  { 886, 0.777467f, -1, -2 },
  { 2420, 0.889250f, 1, 2 },
  { 485, 0.917006f, -1, -2 },
  { 4776, 0.838769f, -1, -2 },
  { 573, 1.655960f, 1, 8 },
  { 2244, 1.520162f, 1, 4 },
  { 484, 1.015853f, 1, 2 },
  { 1860, 1.311240f, -1, -1 },
  { 502, 0.954029f, -1, -2 },
  { 1791, 1.423086f, 1, 2 },
  { 666, 1.196346f, -1, -2 },
  { 2558, 1.307539f, -2, -1 },
  { 499, 1.602448f, 1, 4 },
  { 2319, 1.859016f, 1, 2 },
  { 1795, 2.337581f, -2, -1 },
  { 2161, 1.769864f, -2, -1 },
  { 612, 1.342625f, 1, 2 },
  { 2141, 1.657266f, -2, -1 },
  { 1820, 2.284320f, -2, -2 },
  { 552, 1.658239f, 1, 16 },
  { 2458, 1.039841f, 1, 8 },
  { 575, 0.914854f, 1, 4 },
  { 2279, 0.688114f, 1, 2 },
  { 299, 0.624140f, -1, -2 },
  { 2484, 0.642739f, -2, -1 },
  { 597, 0.830317f, 1, 2 },
  { 2327, 0.845297f, -2, -1 },
  { 385, 0.801116f, -1, -2 },
  { 2331, 0.988567f, 1, 4 },
  { 947, 0.861385f, 1, 2 },
  { 4163, 0.780495f, -1, -2 },
  { 470, 0.875779f, -1, -2 },
  { 2536, 0.978222f, 1, 2 },
  { 520, 0.943827f, -1, -2 },
  { 2333, 0.929157f, -2, -1 },
  { 2355, 1.852563f, 1, 8 },
  { 588, 1.323125f, 1, 4 },
  { 2386, 1.384043f, 1, 2 },
  { 486, 1.001746f, -1, -2 },
  { 4283, 0.198932f, -1, -1 },
  { 460, 1.234554f, 1, 2 },
  { 2528, 1.423554f, -2, -1 },
  { 564, 1.170114f, -2, -2 },
  { 486, 1.801993f, 1, 4 },
  { 1900, 1.622545f, 1, 2 },
  { 3936, 1.067385f, -1, -2 },
  { 2254, 1.045581f, -2, -1 },
  { 443, 1.796647f, 1, 2 },
  { 1857, 1.587581f, -2, -1 },
  { 377, 1.440175f, -1, -2 },
  { 480, 1.679387f, 1, 16 },
  { 2408, 1.049980f, 1, 8 },
  { 566, 0.941091f, 1, 4 },
  { 2602, 0.684917f, 1, 2 },
  { 327, 0.645016f, -1, -2 },
  { 2536, 0.657393f, -2, -1 },
  { 515, 0.801755f, 1, 2 },
  { 2333, 0.860811f, -2, -1 },
  { 421, 0.888446f, -2, -2 },
  { 2486, 0.948976f, 1, 4 },
  { 474, 0.949177f, 1, 2 },
  { 2434, 0.752620f, -2, -1 },
  { 1148, 0.794440f, -1, -2 },
  { 2546, 0.937727f, 1, 2 },
  { 502, 1.052174f, -1, -2 },
  { 2560, 0.861024f, -2, -1 },
  { 422, 1.529984f, 1, 8 },
  { 1801, 1.377143f, 1, 4 },
  { 883, 0.972738f, 1, 2 },
  { 3508, 1.139135f, -1, -2 },
  { 2471, 1.858864f, -2, -2 },
  { 2507, 1.183414f, 1, 2 },
  { 491, 1.178614f, -1, -2 },
  { 1848, 1.305819f, -2, -1 },
  { 560, 1.621002f, 1, 4 },
  { 2287, 1.717137f, 1, 2 },
  { 548, 1.101939f, -1, -2 },
  { 2537, 1.308874f, -2, -1 },
  { 556, 1.507265f, 1, 2 },
  { 1672, 1.966332f, -2, -1 },
  { 542, 1.484628f, -2, -2 },
  { 445, 1.742466f, 1, 16 },
  { 2472, 1.009836f, 1, 8 },
  { 599, 0.914598f, 1, 4 },
  { 2421, 0.692234f, 1, 2 },
  { 288, 0.617525f, -1, -2 },
  { 2284, 0.718150f, -2, -1 },
  { 493, 0.835783f, 1, 2 },
  { 2263, 0.806054f, -2, -1 },
  { 894, 0.671140f, -1, -2 },
  { 2420, 0.997563f, 1, 4 },
  { 503, 1.011901f, 1, 2 },
  { 4301, 0.841990f, -1, -2 },
  { 614, 0.934722f, -1, -2 },
  { 2377, 1.015873f, 1, 2 },
  { 554, 0.986327f, -1, -2 },
  { 4609, 1.151264f, -1, -2 },
  { 507, 1.527585f, 1, 7 },
  { 1743, 1.494172f, 1, 4 },
  { 458, 1.237818f, 1, 2 },
  { 538, 1.350771f, -1, -2 },
  { 408, 1.197359f, -1, -2 },
  { 2548, 1.073765f, -2, 1 },
  { 3418, 2.033368f, -1, -2 },
  { 529, 1.495087f, 1, 4 },
  { 2279, 1.541039f, 1, 2 },
  { 606, 1.070592f, -1, -2 },
  { 2008, 1.423759f, -2, -1 },
  { 408, 1.463464f, 1, 2 },
  { 1868, 1.805027f, -2, -1 },
  { 482, 1.384335f, -1, -2 },
  { 470, 1.586448f, 1, 16 },
  { 2277, 1.056111f, 1, 8 },
  { 451, 0.947754f, 1, 4 },
  { 2298, 0.721876f, 1, 2 },
  { 324, 0.666640f, -1, -2 },
  { 2256, 0.742134f, -2, -1 },
  { 471, 0.773109f, 1, 2 },
  { 3214, 0.526345f, -2, -1 },
  { 598, 0.794332f, -1, -2 },
  { 2373, 0.979787f, 1, 4 },
  { 551, 0.989333f, 1, 2 },
  { 4262, 0.806479f, -1, -2 },
  { 473, 0.821347f, -1, -2 },
  { 2365, 0.903000f, 1, 2 },
  { 479, 0.962678f, -1, -2 },
  { 2305, 0.947713f, -2, -1 },
  { 563, 1.519744f, 1, 8 },
  { 1930, 1.538442f, 1, 4 },
  { 575, 1.100278f, 1, 2 },
  { 2693, 0.860189f, -2, -1 },
  { 1792, 2.517254f, -2, -1 },
  { 1861, 1.421379f, 1, 2 },
  { 496, 1.324993f, -1, -2 },
  { 2604, 1.135011f, -2, -1 },
  { 570, 1.637045f, 1, 4 },
  { 1872, 1.749611f, 1, 2 },
  { 511, 1.018750f, -1, -2 },
  { 2495, 1.426107f, -2, -1 },
  { 558, 1.418168f, 1, 2 },
  { 2625, 1.638840f, -2, -1 },
  { 491, 1.452864f, -2, -2 },
  { 573, 1.656044f, 1, 16 },
  { 2292, 1.089867f, 1, 8 },
  { 558, 0.925089f, 1, 4 },
  { 2249, 0.672312f, 1, 2 },
  { 445, 0.589659f, -1, -2 },
  { 2243, 0.669315f, -2, -1 },
  { 523, 0.825270f, 1, 2 },
  { 2503, 0.814905f, -2, -1 },
  { 507, 0.885953f, -2, -2 },
  { 2453, 1.000054f, 1, 4 },
  { 472, 0.922705f, 1, 2 },
  { 4494, 0.783349f, -1, -1 },
  { 597, 0.862803f, -1, -2 },
  { 2357, 0.949510f, 1, 2 },
  { 1128, 0.932925f, -1, -2 },
  { 2437, 0.980535f, -2, -1 },
  { 439, 1.659710f, 1, 7 },
  { 2079, 1.602314f, 1, 4 },
  { 1814, 1.703989f, 1, 2 },
  { 510, 1.003567f, -1, -2 },
  { 3643, 1.046911f, -1, -2 },
  { 2237, 1.179153f, -2, 1 },
  { 2501, 1.357573f, -2, -1 },
  { 519, 1.463666f, 1, 4 },
  { 1865, 1.812345f, 1, 2 },
  { 2082, 1.852472f, -2, -1 },
  { 2114, 1.384563f, -2, -1 },
  { 486, 1.571896f, 1, 2 },
  { 2324, 1.982879f, -2, -1 },
  { 587, 1.192037f, -1, -2 },
  { 572, 1.684601f, 1, 16 },
  { 2229, 1.205436f, 1, 8 },
  { 404, 0.988241f, 1, 4 },
  { 2109, 0.832538f, 1, 2 },
  { 1017, 0.650931f, -1, -2 },
  { 2275, 0.747476f, -2, -1 },
  { 505, 0.916401f, 1, 2 },
  { 1803, 0.911235f, -2, -1 },
  { 464, 0.878650f, -1, -2 },
  { 2381, 1.036186f, 1, 4 },
  { 455, 1.072062f, 1, 2 },
  { 3841, 1.014646f, -1, -2 },
  { 540, 0.927400f, -1, -2 },
  { 2449, 0.979914f, 1, 2 },
  { 479, 1.091235f, -1, -2 },
  { 2364, 0.916744f, -2, -1 },
  { 609, 1.537526f, 1, 7 },
  { 2208, 1.434676f, 1, 3 },
  { 596, 1.065251f, -1, 1 },
  { 578, 0.981608f, -2, -2 },
  { 2489, 1.292227f, 1, 2 },
  { 1124, 1.022547f, -1, -2 },
  { 2344, 1.206871f, -2, -1 },
  { 479, 1.558410f, 1, 3 },
  { 2183, 1.496996f, -2, 1 },
  { 1841, 1.694910f, -2, -1 },
  { 373, 1.458795f, 1, 2 },
  { 1784, 1.762453f, -2, -1 },
  { 443, 1.302966f, -1, -2 },
  { 479, 1.697835f, 1, 16 },
  { 2523, 1.029250f, 1, 8 },
  { 528, 0.916568f, 1, 4 },
  { 2164, 0.699155f, 1, 2 },
  { 485, 0.604279f, -1, -2 },
  { 2285, 0.661310f, -2, -1 },
  { 506, 0.763260f, 1, 2 },
  { 2441, 0.749621f, -2, -1 },
  { 766, 0.660846f, -1, -2 },
  { 2480, 0.979194f, 1, 4 },
  { 435, 0.947871f, 1, 2 },
  { 2463, 0.769478f, -2, -1 },
  { 491, 0.932017f, -1, -2 },
  { 2436, 0.953399f, 1, 2 },
  { 852, 0.997622f, -1, -2 },
  { 2557, 0.911967f, -2, -1 },
  { 527, 1.489377f, 1, 8 },
  { 2092, 1.637280f, 1, 4 },
  { 567, 1.097107f, 1, 2 },
  { 2865, 0.714176f, -2, -1 },
  { 2247, 1.740588f, -2, -1 },
  { 2205, 1.300259f, 1, 2 },
  { 843, 1.238392f, -2, -2 },
  { 2222, 1.352015f, -2, -1 },
  { 459, 1.566190f, 1, 4 },
  { 1866, 1.830836f, 1, 2 },
  { 640, 1.094703f, -1, -2 },
  { 2213, 1.427721f, -2, -1 },
  { 418, 1.598099f, 1, 2 },
  { 1824, 2.097919f, -2, -1 },
  { 606, 1.257587f, -1, -2 },
  { 456, 1.728226f, 1, 16 },
  { 2368, 1.063765f, 1, 8 },
  { 572, 0.896449f, 1, 4 },
  { 2275, 0.734559f, 1, 2 },
  { 498, 0.643107f, -1, -2 },
  { 2238, 0.738554f, -2, -1 },
  { 523, 0.877355f, 1, 2 },
  { 2257, 0.787415f, -2, -1 },
  { 563, 0.762286f, -1, -2 },
  { 2280, 1.000168f, 1, 4 },
  { 1006, 0.931591f, 1, 2 },
  { 4197, 0.891480f, -1, -2 },
  { 513, 0.872598f, -1, -2 },
  { 2532, 0.987941f, 1, 2 },
  { 578, 0.956883f, -1, -2 },
  { 2130, 0.967348f, -2, -1 },
  { 495, 1.638621f, 1, 7 },
  { 2158, 1.659750f, 1, 4 },
  { 513, 1.137147f, 1, 2 },
  { 1637, 1.094444f, -2, -1 },
  { 585, 1.123666f, -1, -2 },
  { 2419, 1.135511f, -2, 1 },
  { 2021, 1.309564f, -2, -1 },
  { 568, 1.463778f, 1, 4 },
  { 2317, 1.566847f, 1, 2 },
  { 398, 1.224930f, -1, -2 },
  { 2415, 1.307476f, -2, -1 },
  { 570, 1.524663f, 1, 2 },
  { 2239, 2.021736f, -2, -1 },
  { 536, 1.386038f, -1, -2 },
  { 575, 1.769082f, 1, 16 },
  { 2429, 1.060793f, 1, 8 },
  { 601, 0.883005f, 1, 4 },
  { 1851, 0.739316f, 1, 2 },
  { 327, 0.635557f, -1, -2 },
  { 2235, 0.658626f, -2, -1 },
  { 572, 0.803345f, 1, 2 },
  { 2178, 0.796868f, -2, -1 },
  { 536, 0.914072f, -2, -2 },
  { 2439, 1.021257f, 1, 4 },
  { 982, 0.928299f, 1, 2 },
  { 2284, 0.751497f, -2, -1 },
  { 845, 0.782284f, -1, -2 },
  { 2467, 1.019230f, 1, 2 },
  { 607, 1.080536f, -1, -2 },
  { 2438, 0.947403f, -2, -1 },
  { 496, 1.569905f, 1, 8 },
  { 2034, 1.560709f, 1, 4 },
  { 2314, 1.853964f, 1, 2 },
  { 579, 1.029231f, -1, -2 },
  { 2753, 1.303334f, -2, -1 },
  { 2417, 1.240637f, 1, 2 },
  { 1304, 1.167124f, -2, -2 },
  { 4587, 1.242720f, -1, -2 },
  { 469, 1.522816f, 1, 4 },
  { 1988, 1.509499f, 1, 2 },
  { 2627, 2.026561f, -2, -2 },
  { 2238, 1.832514f, -2, -1 },
  { 564, 1.424744f, 1, 2 },
  { 2561, 1.516496f, -2, -1 },
  { 529, 1.451807f, -2, -2 },
  { 562, 1.643249f, 1, 16 },
  { 2252, 1.066865f, 1, 8 },
  { 618, 0.895143f, 1, 4 },
  { 1814, 0.742202f, 1, 2 },
  { 492, 0.612017f, -1, -2 },
  { 2259, 0.664260f, -2, -1 },
  { 553, 0.915109f, 1, 2 },
  { 1891, 0.894781f, -2, -1 },
  { 442, 0.863758f, -2, -2 },
  { 2416, 0.994154f, 1, 4 },
  { 584, 0.939532f, 1, 2 },
  { 1785, 0.846062f, -2, -1 },
  { 512, 0.803886f, -1, -2 },
  { 2381, 0.991771f, 1, 2 },
  { 584, 1.058906f, -1, -2 },
  { 2296, 0.937087f, -2, -1 },
  { 529, 1.685743f, 1, 8 },
  { 2141, 1.680255f, 1, 4 },
  { 528, 1.148298f, 1, 2 },
  { 2390, 1.130269f, -2, -1 },
  { 627, 1.058121f, -1, -2 },
  { 2635, 1.190835f, 1, 2 },
  { 538, 1.367705f, -1, -2 },
  { 2393, 1.222730f, -2, -1 },
  { 611, 1.503464f, 1, 4 },
  { 1820, 1.743205f, 1, 2 },
  { 1962, 2.143103f, -2, -1 },
  { 2248, 1.430927f, -2, -1 },
  { 456, 1.319832f, 1, 2 },
  { 1777, 1.807514f, -2, -1 },
  { 2263, 2.249070f, -2, -2 },
  { 467, 1.817126f, 1, 16 },
  { 2436, 1.054928f, 1, 8 },
  { 609, 0.887920f, 1, 4 },
  { 2183, 0.740582f, 1, 2 },
  { 450, 0.665476f, -1, -2 },
  { 2243, 0.726771f, -2, -1 },
  { 738, 0.780455f, 1, 2 },
  { 1830, 0.865789f, -2, -1 },
  { 527, 0.878492f, -2, -2 },
  { 2484, 0.987731f, 1, 4 },
  { 441, 0.912779f, 1, 2 },
  { 3757, 0.860970f, -1, -1 },
  { 521, 0.919865f, -1, -2 },
  { 4947, 0.670790f, 1, 2 },
  { 2181, 1.080754f, -1, -1 },
  { 1946, 1.865981f, -2, -1 },
  { 590, 1.520794f, 1, 7 },
  { 1861, 1.463241f, 1, 3 },
  { 432, 0.995370f, -1, 1 },
  { 552, 1.069149f, -1, -2 },
  { 2099, 1.273531f, 1, 2 },
  { 827, 0.945514f, -1, -2 },
  { 2479, 1.168992f, -2, -1 },
  { 581, 1.463432f, 1, 4 },
  { 2321, 1.778008f, 1, 2 },
  { 1868, 1.641928f, -2, -2 },
  { 4553, 1.260906f, -1, -2 },
  { 617, 1.618782f, 1, 2 },
  { 1908, 2.055083f, -2, -1 },
  { 597, 1.290815f, -1, -2 },
  { 446, 1.652139f, 1, 16 },
  { 2373, 1.098284f, 1, 8 },
  { 588, 0.923909f, 1, 4 },
  { 2460, 0.697246f, 1, 2 },
  { 499, 0.631286f, -1, -2 },
  { 2342, 0.679020f, -2, -1 },
  { 373, 0.837113f, 1, 2 },
  { 2237, 0.865069f, -2, -1 },
  { 500, 0.842887f, -1, -2 },
  { 2531, 0.952429f, 1, 4 },
  { 513, 0.960431f, 1, 2 },
  { 4907, 0.530046f, -1, -2 },
  { 909, 0.785396f, -1, -2 },
  { 2255, 0.908514f, 1, 2 },
  { 556, 0.898628f, -1, -2 },
  { 2494, 0.868989f, -2, -1 },
  { 400, 1.500367f, 1, 8 },
  { 2400, 1.449003f, 1, 4 },
  { 400, 1.182261f, 1, 2 },
  { 2152, 1.060774f, -2, -1 },
  { 468, 1.059449f, -1, -2 },
  { 4880, 0.599264f, 1, 2 },
  { 2319, 1.159887f, -2, -1 },
  { 2256, 1.885990f, -2, -1 },
  { 2248, 1.986853f, 1, 4 },
  { 578, 1.270509f, 1, 2 },
  { 2598, 1.315851f, -2, -1 },
  { 508, 1.301098f, -1, -2 },
  { 516, 1.984151f, 1, 2 },
  { 1780, 1.835481f, -2, -1 },
  { 622, 1.563643f, -1, -2 },
  { 619, 1.537061f, 1, 16 },
  { 2377, 1.059738f, 1, 8 },
  { 515, 0.924700f, 1, 4 },
  { 1833, 0.761418f, 1, 2 },
  { 445, 0.655344f, -1, -2 },
  { 2516, 0.723598f, -2, -1 },
  { 617, 0.833227f, 1, 2 },
  { 1733, 0.795799f, -2, -1 },
  { 387, 0.776105f, -1, -2 },
  { 2355, 0.977698f, 1, 4 },
  { 590, 0.908166f, 1, 2 },
  { 2281, 0.813760f, -2, -1 },
  { 444, 0.889151f, -1, -2 },
  { 2414, 0.961423f, 1, 2 },
  { 687, 0.930564f, -1, -2 },
  { 2513, 0.900823f, -2, -1 },
  { 2451, 1.730650f, 1, 8 },
  { 566, 1.201822f, 1, 4 },
  { 2256, 1.126620f, 1, 2 },
  { 1679, 1.296152f, -2, -1 },
  { 2440, 1.148063f, -2, -1 },
  { 929, 1.105434f, 1, 2 },
  { 1776, 1.493360f, -2, -1 },
  { 501, 1.163626f, -1, -2 },
  { 445, 1.785329f, 1, 4 },
  { 1802, 1.534434f, 1, 2 },
  { 522, 1.280776f, -1, -2 },
  { 2477, 1.375725f, -2, -1 },
  { 489, 1.799121f, 1, 2 },
  { 4373, 1.342275f, -1, -2 },
  { 588, 1.645245f, -1, -2 },
  { 562, 1.552787f, 1, 16 },
  { 2407, 1.068248f, 1, 8 },
  { 572, 0.898360f, 1, 4 },
  { 2495, 0.665131f, 1, 2 },
  { 490, 0.614543f, -1, -2 },
  { 2510, 0.672707f, -2, -1 },
  { 514, 0.895044f, 1, 2 },
  { 2159, 0.843200f, -2, -1 },
  { 588, 0.801404f, -1, -2 },
  { 2474, 0.920034f, 1, 4 },
  { 673, 0.849903f, 1, 2 },
  { 1095, 0.977140f, -1, -1 },
  { 442, 0.764072f, -1, -2 },
  { 2356, 0.989825f, 1, 2 },
  { 963, 0.928097f, -1, -2 },
  { 2379, 0.976525f, -2, -1 },
  { 450, 1.570713f, 1, 8 },
  { 1920, 1.592926f, 1, 4 },
  { 515, 1.053934f, 1, 2 },
  { 1900, 0.909343f, -2, -1 },
  { 1712, 2.117710f, -2, -1 },
  { 1782, 1.269208f, 1, 2 },
  { 608, 1.414278f, -2, -2 },
  { 2171, 1.171126f, -2, -1 },
  { 528, 1.530476f, 1, 4 },
  { 1798, 1.752126f, 1, 2 },
  { 130, 2.498363f, -2, -1 },
  { 2452, 1.411637f, -2, -1 },
  { 1792, 2.336673f, 1, 2 },
  { 437, 1.440656f, -2, -2 },
  { 522, 1.840473f, -1, -2 },
  { 577, 1.615180f, 1, 16 },
  { 2521, 1.013984f, 1, 8 },
  { 568, 0.891494f, 1, 4 },
  { 2272, 0.705721f, 1, 2 },
  { 473, 0.631045f, -1, -2 },
  { 2482, 0.670926f, -2, -1 },
  { 600, 0.816822f, 1, 2 },
  { 1778, 0.848557f, -2, -1 },
  { 385, 0.826287f, -2, -2 },
  { 2454, 0.986829f, 1, 4 },
  { 550, 0.908207f, 1, 2 },
  { 4691, 0.687371f, -1, -2 },
  { 432, 0.931539f, -1, -2 },
  { 2580, 0.938293f, 1, 2 },
  { 986, 0.940134f, -1, -2 },
  { 2231, 0.977110f, -2, -1 },
  { 480, 1.519179f, 1, 7 },
  { 2284, 1.374633f, 1, 3 },
  { 462, 1.061667f, -1, 1 },
  { 61, 0.849258f, -2, -2 },
  { 2395, 1.200560f, 1, 2 },
  { 604, 1.088505f, -1, -2 },
  { 2308, 1.221232f, -2, -1 },
  { 570, 1.493935f, 1, 4 },
  { 2281, 1.706917f, 1, 2 },
  { 957, 1.190793f, -1, -2 },
  { 1883, 1.565824f, -2, -1 },
  { 509, 1.566745f, 1, 2 },
  { 1754, 2.231539f, -2, -1 },
  { 2391, 2.145005f, -2, -2 },
  { 578, 1.610110f, 1, 16 },
  { 2334, 1.165810f, 1, 8 },
  { 598, 0.941371f, 1, 4 },
  { 1746, 0.851229f, 1, 2 },
  { 672, 0.675927f, -1, -2 },
  { 2391, 0.679276f, -2, -1 },
  { 469, 0.916542f, 1, 2 },
  { 2411, 0.910595f, -2, -1 },
  { 422, 0.861000f, -1, -2 },
  { 2452, 0.998602f, 1, 4 },
  { 540, 0.948301f, 1, 2 },
  { 1849, 0.834159f, -2, -1 },
  { 753, 0.850031f, -1, -2 },
  { 2559, 0.950616f, 1, 2 },
  { 543, 0.915038f, -1, -2 },
  { 4846, 0.841985f, -1, -2 },
  { 2436, 1.836668f, 1, 8 },
  { 611, 1.207218f, 1, 4 },
  { 2428, 1.267324f, 1, 2 },
  { 3207, 0.662534f, -2, -2 },
  { 4021, 1.216451f, -1, -2 },
  { 481, 1.250949f, 1, 2 },
  { 2496, 1.343456f, -2, -1 },
  { 516, 1.258488f, -1, -2 },
  { 2438, 1.761111f, 1, 4 },
  { 532, 1.497249f, 1, 2 },
  { 2398, 1.181382f, -2, -1 },
  { 528, 1.388612f, -2, -2 },
  { 510, 2.020135f, 1, 2 },
  { 2179, 1.367298f, -2, -1 },
  { 608, 1.921464f, -1, -2 },
  { 597, 1.664672f, 1, 16 },
  { 2505, 1.077673f, 1, 8 },
  { 527, 0.929244f, 1, 4 },
  { 2383, 0.640824f, 1, 2 },
  { 307, 0.581096f, -1, -2 },
  { 2366, 0.675571f, -2, -1 },
  { 485, 0.867152f, 1, 2 },
  { 2406, 0.862929f, -2, -1 },
  { 430, 0.850419f, -1, -2 },
  { 2399, 0.994082f, 1, 4 },
  { 687, 0.941267f, 1, 2 },
  { 2447, 0.793775f, -2, -1 },
  { 570, 0.851962f, -1, -2 },
  { 2345, 1.091613f, 1, 2 },
  { 457, 1.137363f, -1, -2 },
  { 2370, 0.989712f, -2, -1 },
  { 589, 1.451170f, 1, 7 },
  { 2368, 1.569593f, 1, 4 },
  { 507, 1.232302f, 1, 2 },
  { 2386, 1.104071f, -2, -1 },
  { 406, 1.160612f, -1, -2 },
  { 2364, 1.163882f, -2, 1 },
  { 2361, 1.062024f, -2, -1 },
  { 2245, 1.982398f, 1, 4 },
  { 540, 1.303049f, 1, 2 },
  { 2519, 1.376001f, -2, -1 },
  { 479, 1.093205f, -1, -2 },
  { 563, 1.716874f, 1, 2 },
  { 2621, 1.319007f, -2, -1 },
  { 516, 1.627347f, -1, -2 },
  { 576, 1.714115f, 1, 16 },
  { 2412, 1.025125f, 1, 8 },
  { 614, 0.873471f, 1, 4 },
  { 1833, 0.752931f, 1, 2 },
  { 625, 0.655238f, -1, -2 },
  { 2498, 0.675851f, -2, -1 },
  { 510, 0.815566f, 1, 2 },
  { 1767, 0.855853f, -2, -1 },
  { 420, 0.758098f, -1, -2 },
  { 2405, 0.950233f, 1, 4 },
  { 600, 0.898060f, 1, 2 },
  { 2095, 0.638338f, -2, -1 },
  { 672, 0.757775f, -1, -2 },
  { 2378, 0.989390f, 1, 2 },
  { 548, 0.975437f, -1, -2 },
  { 2344, 0.997760f, -2, -1 },
  { 616, 1.595052f, 1, 8 },
  { 1730, 1.697969f, 1, 4 },
  { 569, 1.195091f, 1, 2 },
  { 2176, 1.195344f, -2, -1 },
  { 637, 1.162200f, -1, -2 },
  { 2345, 1.324728f, 1, 2 },
  { 1775, 1.946679f, -2, -2 },
  { 1913, 1.413113f, -2, -1 },
  { 502, 1.409227f, 1, 4 },
  { 1886, 1.845595f, 1, 2 },
  { 1750, 2.019356f, -2, -1 },
  { 2532, 1.540771f, -2, -1 },
  { 739, 1.235834f, 1, 2 },
  { 2282, 1.678345f, -2, -1 },
  { 450, 1.429152f, -1, -2 },
  { 464, 1.878287f, 1, 16 },
  { 2376, 1.097100f, 1, 8 },
  { 448, 0.920221f, 1, 4 },
  { 1843, 0.728313f, 1, 2 },
  { 457, 0.631950f, -1, -2 },
  { 2547, 0.653795f, -2, -1 },
  { 556, 0.827494f, 1, 2 },
  { 1771, 0.808091f, -2, -1 },
  { 388, 0.776389f, -1, -2 },
  { 2280, 1.020277f, 1, 4 },
  { 631, 0.905158f, 1, 2 },
  { 3925, 1.029941f, -1, -2 },
  { 733, 0.878904f, -1, -2 },
  { 2400, 1.022541f, 1, 2 },
  { 502, 1.145390f, -1, -2 },
  { 2328, 0.951551f, -2, -1 },
  { 389, 1.524049f, 1, 7 },
  { 1713, 1.482434f, 1, 4 },
  { 552, 1.049580f, 1, 2 },
  { 842, 0.947956f, -1, -1 },
  { 2240, 1.673331f, -2, -1 },
  { 2543, 1.185029f, -2, 1 },
  { 2234, 1.214187f, -2, -1 },
  { 465, 1.451309f, 1, 4 },
  { 2350, 1.496473f, 1, 2 },
  { 2673, 2.168961f, -2, -1 },
  { 4014, 2.095740f, -1, -2 },
  { 541, 1.223419f, 1, 2 },
  { 2235, 1.613003f, -2, -1 },
  { 617, 1.355391f, -1, -2 },
  { 661, 1.620800f, 1, 16 },
  { 1870, 1.291582f, 1, 8 },
  { 467, 1.002104f, 1, 4 },
  { 2515, 0.785331f, 1, 2 },
  { 339, 0.715673f, -1, -2 },
  { 2285, 0.723339f, -2, -1 },
  { 571, 0.933627f, 1, 2 },
  { 2511, 0.870221f, -2, -1 },
  { 428, 0.887572f, -1, -2 },
  { 2205, 1.094644f, 1, 4 },
  { 482, 1.050438f, 1, 2 },
  { 2499, 0.737996f, -2, -1 },
  { 806, 0.919900f, -1, -2 },
  { 2239, 1.072038f, 1, 2 },
  { 381, 0.929650f, -1, -2 },
  { 2295, 0.999393f, -2, -1 },
  { 546, 1.594694f, 1, 8 },
  { 2215, 1.438819f, 1, 4 },
  { 407, 1.121323f, 1, 2 },
  { 2202, 0.992562f, -2, -1 },
  { 509, 1.137609f, -1, -2 },
  { 2181, 1.294127f, 1, 2 },
  { 554, 1.495693f, -2, -2 },
  { 2136, 1.345414f, -2, -1 },
  { 445, 1.687884f, 1, 4 },
  { 2313, 1.831476f, 1, 2 },
  { 442, 1.314146f, -2, -2 },
  { 2418, 1.316495f, -2, -1 },
  { 424, 1.468405f, 1, 2 },
  { 2248, 1.870366f, -2, -1 },
  { 461, 1.406644f, -1, -2 },
  { 578, 1.725365f, 1, 16 },
  { 2535, 0.980217f, 1, 8 },
  { 484, 0.934364f, 1, 4 },
  { 2505, 0.710599f, 1, 2 },
  { 456, 0.628017f, -1, -2 },
  { 2538, 0.636666f, -2, -1 },
  { 419, 0.873189f, 1, 2 },
  { 1798, 0.907193f, -2, -1 },
  { 404, 0.803085f, -1, -2 },
  { 2531, 0.941809f, 1, 4 },
  { 522, 0.866591f, 1, 2 },
  { 2186, 0.774702f, -2, -1 },
  { 550, 0.893984f, -1, -2 },
  { 4860, 0.709143f, 1, 2 },
  { 2373, 0.928706f, -2, -1 },
  { 1671, 1.841965f, -2, -1 },
  { 563, 1.580147f, 1, 8 },
  { 1761, 1.624958f, 1, 4 },
  { 631, 1.008034f, 1, 2 },
  { 4099, 0.588180f, -1, -1 },
  { 1695, 2.274233f, -2, -1 },
  { 2466, 1.237240f, 1, 2 },
  { 4944, -0.939950f, -2, -2 },
  { 1866, 1.290113f, -2, -1 },
  { 526, 1.535742f, 1, 4 },
  { 1873, 1.815988f, 1, 2 },
  { 2132, 2.185682f, -2, -1 },
  { 2347, 1.575069f, -2, -1 },
  { 589, 1.437452f, 1, 2 },
  { 1664, 2.045358f, -2, -1 },
  { 591, 1.239530f, -1, -2 },
  { 621, 1.605137f, 1, 16 },
  { 2407, 1.051757f, 1, 8 },
  { 509, 0.913461f, 1, 4 },
  { 1806, 0.736223f, 1, 2 },
  { 473, 0.640712f, -1, -2 },
  { 2534, 0.721739f, -1, -1 },
  { 607, 0.793542f, 1, 2 },
  { 2315, 0.768034f, -2, -1 },
  { 640, 0.819788f, -2, -2 },
  { 2472, 0.959790f, 1, 4 },
  { 580, 0.918941f, 1, 2 },
  { 4515, 0.803190f, -1, -2 },
  { 480, 0.818196f, -1, -2 },
  { 2136, 0.986917f, 1, 2 },
  { 767, 0.967418f, -1, -2 },
  { 2435, 0.951287f, -2, -1 },
  { 574, 1.523993f, 1, 7 },
  { 2104, 1.482272f, 1, 3 },
  { 507, 0.994785f, -1, 1 },
  { 583, 0.991032f, -1, -2 },
  { 2246, 1.311704f, 1, 2 },
  { 709, 1.067457f, -1, -2 },
  { 2170, 1.358304f, -2, -1 },
  { 1762, 2.194391f, 1, 4 },
  { 477, 1.403468f, 1, 2 },
  { 2334, 1.686523f, -2, -1 },
  { 619, 1.273485f, -2, -2 },
  { 488, 1.895171f, 1, 2 },
  { 2304, 1.659877f, -2, -1 },
  { 531, 1.812357f, -1, -2 },
  { 616, 1.582133f, 1, 16 },
  { 2513, 0.958893f, 1, 8 },
  { 453, 0.903129f, 1, 4 },
  { 2476, 0.641590f, 1, 2 },
  { 449, 0.569919f, -1, -2 },
  { 2375, 0.635068f, -2, -1 },
  { 554, 0.776973f, 1, 2 },
  { 2250, 0.778859f, -2, -1 },
  { 530, 0.695099f, -1, -2 },
  { 2538, 0.883866f, 1, 4 },
  { 495, 0.855604f, 1, 2 },
  { 2434, 0.737510f, -2, -1 },
  { 448, 0.851012f, -1, -2 },
  { 2335, 0.979435f, 1, 2 },
  { 502, 0.968310f, -1, -2 },
  { 4905, 0.732003f, -1, -2 },
  { 512, 1.484192f, 1, 8 },
  { 2042, 1.433425f, 1, 4 },
  { 387, 1.110839f, 1, 2 },
  { 2000, 1.057398f, -2, -1 },
  { 741, 0.968843f, -2, -2 },
  { 2198, 1.330340f, 1, 2 },
  { 624, 1.277459f, -2, -2 },
  { 2411, 1.064583f, -2, -1 },
  { 2408, 1.921149f, 1, 4 },
  { 650, 1.258398f, 1, 2 },
  { 1789, 1.412221f, -2, -1 },
  { 583, 1.254353f, -1, -2 },
  { 2318, 1.886122f, 1, 2 },
  { 457, 1.628190f, -2, -2 },
  { 622, 2.095857f, -1, -2 },
  { 613, 1.723977f, 1, 16 },
  { 2254, 1.112938f, 1, 8 },
  { 453, 0.946993f, 1, 4 },
  { 2236, 0.742989f, 1, 2 },
  { 532, 0.634408f, -1, -2 },
  { 2481, 0.676062f, -2, -1 },
  { 549, 0.845996f, 1, 2 },
  { 2195, 0.749200f, -2, -1 },
  { 529, 0.918434f, -2, -2 },
  { 2425, 1.123982f, 1, 4 },
  { 531, 1.036212f, 1, 2 },
  { 2469, 0.797553f, -2, -1 },
  { 536, 0.986348f, -1, -2 },
  { 2351, 1.043488f, 1, 2 },
  { 982, 1.052572f, -1, -2 },
  { 2490, 0.959745f, -2, -1 },
  { 543, 1.477672f, 1, 6 },
  { 1713, 1.610853f, 1, 3 },
  { 560, 0.991092f, -1, 1 },
  { 531, 1.213579f, -1, -2 },
  { 1854, 1.355278f, -2, 1 },
  { 1882, 1.298886f, -2, -1 },
  { 548, 1.407090f, 1, 4 },
  { 1674, 1.640153f, 1, 2 },
  { 776, 1.118131f, -1, -2 },
  { 3553, 0.760415f, -2, -1 },
  { 626, 1.337544f, 1, 2 },
  { 2376, 1.569980f, -2, -1 },
  { 492, 1.408729f, -1, -2 },
  { 563, 1.614651f, 1, 16 },
  { 2278, 1.015140f, 1, 8 },
  { 576, 0.858221f, 1, 4 },
  { 2310, 0.652208f, 1, 2 },
  { 641, 0.600163f, -1, -2 },
  { 2281, 0.645171f, -2, -1 },
  { 477, 0.845184f, 1, 2 },
  { 1814, 0.803125f, -2, -1 },
  { 593, 0.785611f, -1, -2 },
  { 2437, 0.954992f, 1, 4 },
  { 634, 0.865204f, 1, 2 },
  { 2292, 0.740281f, -2, -1 },
  { 413, 0.972299f, -1, -2 },
  { 2415, 0.923066f, 1, 2 },
  { 1073, 1.025010f, -1, -2 },
  { 2474, 0.908716f, -2, -1 },
  { 500, 1.611302f, 1, 8 },
  { 2329, 1.365866f, 1, 4 },
  { 494, 1.091698f, 1, 2 },
  { 2188, 1.203189f, -2, -1 },
  { 475, 1.057909f, -2, -2 },
  { 1681, 1.333165f, 1, 2 },
  { 749, 1.198469f, -1, -2 },
  { 2430, 1.238921f, -2, -1 },
  { 587, 1.634509f, 1, 4 },
  { 1982, 1.760077f, 1, 2 },
  { 375, 1.371260f, -2, -2 },
  { 2268, 1.469168f, -2, -1 },
  { 526, 1.612654f, 1, 2 },
  { 1703, 2.139657f, -2, -1 },
  { 669, 1.252215f, -2, -2 },
  { 486, 1.737391f, 1, 16 },
  { 2377, 1.111052f, 1, 8 },
  { 551, 0.960744f, 1, 4 },
  { 2288, 0.684504f, 1, 2 },
  { 578, 0.640141f, -1, -2 },
  { 2493, 0.703281f, -2, -1 },
  { 572, 0.898079f, 1, 2 },
  { 2575, 0.740534f, -2, -1 },
  { 615, 0.773005f, -1, -2 },
  { 2277, 1.016052f, 1, 4 },
  { 595, 0.973772f, 1, 2 },
  { 3524, 1.132648f, -1, -2 },
  { 892, 0.773003f, -1, -2 },
  { 2500, 0.980381f, 1, 2 },
  { 455, 0.924833f, -1, -2 },
  { 2444, 0.990080f, -2, -1 },
  { 593, 1.445124f, 1, 7 },
  { 2074, 1.316271f, 1, 3 },
  { 676, 0.974019f, -1, 1 },
  { 1853, 2.164138f, -2, -2 },
  { 2501, 1.303931f, 1, 2 },
  { 923, 1.070340f, -1, -2 },
  { 4857, 0.700298f, -1, -2 },
  { 561, 1.349671f, 1, 4 },
  { 2023, 1.516942f, 1, 2 },
  { 970, 1.280079f, -2, -2 },
  { 1888, 1.601458f, -1, -1 },
  { 564, 1.418824f, 1, 2 },
  { 1496, 1.891364f, -2, -1 },
  { 557, 1.411339f, -2, -2 },
  { 443, 1.715160f, 1, 16 },
  { 1817, 1.284505f, 1, 8 },
  { 541, 0.985016f, 1, 4 },
  { 2267, 0.677781f, 1, 2 },
  { 491, 0.578750f, -1, -2 },
  { 2461, 0.747502f, -1, -1 },
  { 502, 0.968044f, 1, 2 },
  { 2114, 0.959858f, -2, -1 },
  { 487, 0.943515f, -1, -2 },
  { 2222, 1.102650f, 1, 4 },
  { 475, 1.047221f, 1, 2 },
  { 3367, 1.234812f, -1, -2 },
  { 390, 0.846720f, -1, -2 },
  { 2459, 0.953493f, 1, 2 },
  { 582, 0.990129f, -1, -2 },
  { 2497, 1.065830f, -2, -1 },
  { 587, 1.616149f, 1, 7 },
  { 2243, 1.332676f, 1, 3 },
  { 535, 1.074340f, -1, 1 },
  { 1111, 0.846610f, -1, -2 },
  { 2380, 1.216742f, 1, 2 },
  { 588, 1.118062f, -1, -2 },
  { 1836, 1.183660f, -2, -1 },
  { 565, 1.524307f, 1, 4 },
  { 2401, 1.659060f, 1, 2 },
  { 372, 1.256102f, -1, -2 },
  { 2560, 1.460787f, -2, -1 },
  { 592, 1.569185f, 1, 2 },
  { 2266, 2.039963f, -2, -1 },
  { 730, 1.076000f, -1, -2 },
  { 570, 1.652887f, 1, 16 },
  { 2273, 1.094593f, 1, 8 },
  { 481, 0.959559f, 1, 4 },
  { 2112, 0.757410f, 1, 2 },
  { 455, 0.674710f, -1, -2 },
  { 2409, 0.686083f, -2, -1 },
  { 556, 0.886830f, 1, 2 },
  { 2168, 0.873784f, -2, -1 },
  { 535, 0.789091f, -2, -2 },
  { 2426, 0.964804f, 1, 4 },
  { 544, 0.967699f, 1, 2 },
  { 2380, 0.808147f, -2, -1 },
  { 774, 0.881374f, -1, -2 },
  { 2460, 0.952712f, 1, 2 },
  { 565, 1.038894f, -1, -2 },
  { 4846, 0.792029f, -1, -2 },
  { 496, 1.514900f, 1, 8 },
  { 2394, 1.383833f, 1, 4 },
  { 1036, 0.941411f, 1, 2 },
  { 728, 1.157705f, -1, -1 },
  { 1768, 2.093365f, -2, -1 },
  { 2209, 1.227983f, 1, 2 },
  { 617, 1.282577f, -2, -2 },
  { 2553, 1.175974f, -2, -1 },
  { 478, 1.466629f, 1, 4 },
  { 2111, 1.703948f, 1, 2 },
  { 2374, 2.077692f, -2, -2 },
  { 3276, 2.016144f, -1, -2 },
  { 605, 1.305888f, 1, 2 },
  { 2424, 1.538841f, -2, -1 },
  { 441, 1.457719f, -1, -2 },
  { 582, 1.634941f, 1, 16 },
  { 2423, 1.002879f, 1, 8 },
  { 718, 0.837534f, 1, 4 },
  { 2301, 0.666774f, 1, 2 },
  { 495, 0.606224f, -1, -2 },
  { 4843, 0.589409f, -1, -2 },
  { 510, 0.883641f, 1, 2 },
  { 1875, 0.802884f, -2, -1 },
  { 445, 0.857157f, -2, -2 },
  { 2208, 1.011017f, 1, 4 },
  { 576, 0.930802f, 1, 2 },
  { 2659, 0.694881f, -2, -1 },
  { 594, 0.878434f, -1, -2 },
  { 2366, 1.015110f, 1, 2 },
  { 969, 0.971860f, -1, -2 },
  { 4846, 0.840866f, -1, -2 },
  { 453, 1.512398f, 1, 7 },
  { 2258, 1.331493f, 1, 3 },
  { 555, 0.924427f, -1, 1 },
  { 2271, 2.085042f, -2, -2 },
  { 2346, 1.235952f, 1, 2 },
  { 324, 1.205578f, -1, -2 },
  { 4738, 0.848458f, -1, -2 },
  { 474, 1.462965f, 1, 4 },
  { 2410, 1.719653f, 1, 2 },
  { 506, 1.127241f, -1, -2 },
  { 2297, 1.276399f, -2, -1 },
  { 1809, 2.342257f, 1, 2 },
  { 380, 1.309220f, -1, -2 },
  { 596, 1.797813f, -1, -2 },
  { 561, 1.655815f, 1, 16 },
  { 2455, 1.019064f, 1, 8 },
  { 437, 0.926713f, 1, 4 },
  { 2255, 0.652288f, 1, 2 },
  { 486, 0.632473f, -1, -2 },
  { 2384, 0.665661f, -2, -1 },
  { 543, 0.817606f, 1, 2 },
  { 2393, 0.750759f, -2, -1 },
  { 751, 0.704616f, -1, -2 },
  { 2366, 1.006523f, 1, 4 },
  { 536, 0.947057f, 1, 2 },
  { 2359, 0.737379f, -2, -1 },
  { 553, 0.910634f, -1, -2 },
  { 2204, 0.882772f, 1, 2 },
  { 581, 0.814670f, -1, -2 },
  { 2400, 0.876428f, -2, -1 },
  { 497, 1.567227f, 1, 8 },
  { 1843, 1.682862f, 1, 4 },
  { 1766, 1.581705f, 1, 2 },
  { 443, 0.905207f, -1, -2 },
  { 508, 1.375683f, -1, -2 },
  { 2166, 1.245841f, 1, 2 },
  { 1396, 1.348504f, -2, -2 },
  { 5035, 0.483475f, -1, -2 },
  { 484, 1.541731f, 1, 4 },
  { 2133, 1.611699f, 1, 2 },
  { 518, 1.364434f, -1, -2 },
  { 2437, 1.422652f, -2, -1 },
  { 539, 1.461284f, 1, 2 },
  { 2631, 1.598897f, -2, -1 },
  { 1823, 2.219398f, -2, -2 },
  { 582, 1.652671f, 1, 16 },
  { 2462, 1.044741f, 1, 8 },
  { 532, 0.925629f, 1, 4 },
  { 2237, 0.711120f, 1, 2 },
  { 626, 0.618668f, -1, -2 },
  { 1925, 0.668124f, -2, -1 },
  { 512, 0.830391f, 1, 2 },
  { 1763, 0.798072f, -2, -1 },
  { 732, 0.820951f, -2, -2 },
  { 2428, 0.966155f, 1, 4 },
  { 542, 0.887634f, 1, 2 },
  { 1888, 0.835455f, -2, -1 },
  { 494, 0.909592f, -1, -2 },
  { 2147, 1.007564f, 1, 2 },
  { 605, 0.945708f, -1, -2 },
  { 4886, 0.810394f, -1, -2 },
  { 502, 1.550964f, 1, 8 },
  { 2289, 1.457798f, 1, 4 },
  { 462, 1.088622f, 1, 2 },
  { 2858, 0.969567f, -2, -1 },
  { 643, 1.018208f, -2, -2 },
  { 2544, 1.210636f, 1, 2 },
  { 513, 1.366611f, -1, -2 },
  { 1727, 1.239627f, -2, -1 },
  { 470, 1.565756f, 1, 4 },
  { 2141, 1.643162f, 1, 2 },
  { 468, 1.221842f, -1, -2 },
  { 2664, 1.311167f, -2, -1 },
  { 522, 1.459209f, 1, 2 },
  { 2435, 1.547490f, -2, -1 },
  { 543, 1.271495f, -1, -2 },
  { 449, 1.782971f, 1, 16 },
  { 2496, 1.149056f, 1, 8 },
  { 485, 0.965907f, 1, 4 },
  { 2144, 0.720450f, 1, 2 },
  { 458, 0.651432f, -1, -2 },
  { 2285, 0.660862f, -2, -1 },
  { 568, 0.913539f, 1, 2 },
  { 2229, 0.911760f, -2, -1 },
  { 551, 0.907232f, -1, -2 },
  { 2338, 1.043566f, 1, 4 },
  { 499, 0.993133f, 1, 2 },
  { 2498, 0.748884f, -2, -1 },
  { 467, 0.841058f, -1, -2 },
  { 2127, 1.059620f, 1, 2 },
  { 683, 0.989230f, -1, -2 },
  { 2408, 0.979616f, -2, -1 },
  { 583, 1.465958f, 1, 6 },
  { 2370, 1.257633f, 1, 2 },
  { 757, 1.001068f, -1, -2 },
  { 2376, 1.149474f, 1, 2 },
  { 456, 1.356587f, -1, -2 },
  { 3672, 1.927772f, -1, -2 },
  { 503, 1.536307f, 1, 4 },
  { 2186, 1.842142f, 1, 2 },
  { 617, 1.174512f, -1, -2 },
  { 4914, 0.795492f, -1, -2 },
  { 587, 1.318116f, 1, 2 },
  { 2189, 1.603739f, -2, -1 },
  { 2296, 2.219761f, -2, -2 },
  { 585, 1.684924f, 1, 16 },
  { 2460, 1.086200f, 1, 8 },
  { 590, 0.937725f, 1, 4 },
  { 1816, 0.810966f, 1, 2 },
  { 438, 0.695629f, -1, -2 },
  { 2481, 0.718020f, -2, -1 },
  { 417, 0.930944f, 1, 2 },
  { 2093, 0.857217f, -2, -1 },
  { 579, 0.859371f, -1, -2 },
  { 2433, 0.947072f, 1, 4 },
  { 795, 0.895060f, 1, 2 },
  { 4630, 0.882520f, -1, -2 },
  { 610, 0.785243f, -1, -2 },
  { 2493, 0.995403f, 1, 2 },
  { 444, 1.035059f, -1, -2 },
  { 2489, 0.925178f, -2, -1 },
  { 527, 1.553116f, 1, 8 },
  { 2380, 1.305330f, 1, 4 },
  { 427, 1.139609f, 1, 2 },
  { 3559, 0.798473f, -1, -1 },
  { 543, 1.107631f, -2, -2 },
  { 2475, 1.248344f, 1, 2 },
  { 534, 1.167944f, -1, -2 },
  { 2367, 1.219326f, -2, -1 },
  { 649, 1.528479f, 1, 4 },
  { 2008, 1.820738f, 1, 2 },
  { 601, 1.196656f, -1, -2 },
  { 1642, 1.416780f, -2, -1 },
  { 619, 1.416883f, 1, 2 },
  { 2041, 1.632264f, -2, -1 },
  { 522, 1.374867f, -1, -2 },
  { 578, 1.714729f, 1, 16 },
  { 2251, 1.013214f, 1, 8 },
  { 544, 0.885848f, 1, 4 },
  { 2482, 0.683164f, 1, 2 },
  { 514, 0.603126f, -1, -2 },
  { 1848, 0.737413f, -2, -1 },
  { 528, 0.841279f, 1, 2 },
  { 1822, 0.890860f, -2, -1 },
  { 444, 0.753499f, -1, -2 },
  { 2285, 1.035715f, 1, 4 },
  { 600, 0.951176f, 1, 2 },
  { 1748, 0.715152f, -2, -1 },
  { 991, 0.779181f, -1, -2 },
  { 2351, 0.982600f, 1, 2 },
  { 1025, 0.962863f, -1, -2 },
  { 2391, 0.981823f, -2, -1 },
  { 595, 1.575348f, 1, 8 },
  { 2328, 1.377816f, 1, 4 },
  { 799, 0.982017f, 1, 2 },
  { 1505, 1.154008f, -2, -1 },
  { 1720, 2.711313f, -2, -2 },
  { 1780, 1.577329f, 1, 2 },
  { 943, 1.196251f, -1, -2 },
  { 2511, 1.158763f, -2, -1 },
  { 517, 1.479097f, 1, 3 },
  { 2231, 1.684978f, -2, 1 },
  { 1614, 1.705987f, -2, -1 },
  { 458, 1.374440f, 1, 2 },
  { 2694, 1.393825f, -2, -1 },
  { 471, 1.380833f, -1, -2 },
  { 563, 1.618722f, 1, 16 },
  { 2440, 1.009546f, 1, 8 },
  { 514, 0.873853f, 1, 4 },
  { 2520, 0.684412f, 1, 2 },
  { 491, 0.665208f, -1, -2 },
  { 2290, 0.621281f, -2, -1 },
  { 551, 0.872292f, 1, 2 },
  { 2258, 0.806292f, -2, -1 },
  { 581, 0.809502f, -1, -2 },
  { 2465, 0.909983f, 1, 4 },
  { 598, 0.899702f, 1, 2 },
  { 2291, 0.750012f, -2, -1 },
  { 596, 0.844287f, -1, -2 },
  { 2442, 0.975642f, 1, 2 },
  { 1102, 0.988096f, -1, -2 },
  { 4765, 0.969987f, -1, -2 },
  { 554, 1.494517f, 1, 8 },
  { 2114, 1.419176f, 1, 4 },
  { 587, 0.995036f, 1, 2 },
  { 3735, 0.558424f, -2, -1 },
  { 2319, 1.769059f, -2, -2 },
  { 2173, 1.354276f, 1, 2 },
  { 669, 1.031176f, -1, -2 },
  { 1971, 1.277058f, -2, -1 },
  { 489, 1.433498f, 1, 4 },
  { 2200, 1.668281f, 1, 2 },
  { 464, 1.317650f, -1, -2 },
  { 2322, 1.314409f, -2, -1 },
  { 2357, 2.090448f, 1, 2 },
  { 494, 1.200885f, -1, -2 },
  { 617, 1.983066f, -1, -2 },
  { 640, 1.725551f, 1, 16 },
  { 2442, 0.998879f, 1, 8 },
  { 551, 0.826995f, 1, 4 },
  { 2554, 0.612021f, 1, 2 },
  { 458, 0.527832f, -1, -2 },
  { 2167, 0.701500f, -1, -1 },
  { 502, 0.836001f, 1, 2 },
  { 1855, 0.833266f, -2, -1 },
  { 443, 0.746071f, -1, -2 },
  { 2414, 1.016307f, 1, 4 },
  { 647, 0.897354f, 1, 2 },
  { 4860, 0.634826f, -1, -2 },
  { 771, 0.790245f, -1, -2 },
  { 2397, 0.958444f, 1, 2 },
  { 524, 1.025027f, -1, -2 },
  { 2308, 0.862681f, -2, -1 },
  { 408, 1.637968f, 1, 7 },
  { 2314, 1.543592f, 1, 3 },
  { 500, 0.951268f, -1, 1 },
  { 426, 1.148167f, -1, -2 },
  { 1815, 1.336899f, 1, 2 },
  { 816, 1.118160f, -1, -2 },
  { 2150, 1.314502f, -2, -1 },
  { 616, 1.520335f, 1, 4 },
  { 1993, 1.847239f, 1, 2 },
  { 480, 1.167163f, -1, -2 },
  { 2537, 1.395082f, -2, -1 },
  { 513, 1.419057f, 1, 2 },
  { 1769, 1.616885f, -2, -1 },
  { 467, 1.273536f, -1, -2 },
  { 594, 1.637121f, 1, 16 },
  { 2469, 0.984174f, 1, 8 },
  { 522, 0.868588f, 1, 4 },
  { 2283, 0.692567f, 1, 2 },
  { 459, 0.599777f, -1, -2 },
  { 2529, 0.642725f, -2, -1 },
  { 638, 0.835331f, 1, 2 },
  { 1914, 0.877289f, -2, -1 },
  { 380, 0.761148f, -1, -2 },
  { 2477, 0.971415f, 1, 4 },
  { 593, 0.903983f, 1, 2 },
  { 2548, 0.715762f, -2, -1 },
  { 513, 0.914001f, -1, -2 },
  { 2361, 0.894524f, 1, 2 },
  { 470, 0.954504f, -1, -2 },
  { 4856, 0.868937f, -1, -2 },
  { 511, 1.496750f, 1, 7 },
  { 2274, 1.323394f, 1, 3 },
  { 353, 0.936287f, -1, 1 },
  { 1646, 2.412860f, -2, -1 },
  { 2587, 1.120005f, 1, 2 },
  { 628, 1.330072f, -1, -2 },
  { 5047, 0.378829f, -1, -2 },
  { 2268, 1.953770f, 1, 4 },
  { 603, 1.171455f, 1, 2 },
  { 2285, 1.725455f, -2, -1 },
  { 662, 1.228841f, -2, -2 },
  { 509, 1.851189f, 1, 2 },
  { 2353, 1.422961f, -2, -1 },
  { 2394, 2.231235f, -2, -2 },
  { 511, 1.745886f, 1, 16 },
  { 2380, 1.059139f, 1, 8 },
  { 513, 0.898495f, 1, 4 },
  { 2373, 0.701363f, 1, 2 },
  { 481, 0.613434f, -1, -2 },
  { 2284, 0.677981f, -2, -1 },
  { 560, 0.786071f, 1, 2 },
  { 2143, 0.697679f, -2, -1 },
  { 487, 0.861863f, -1, -2 },
  { 2378, 0.995956f, 1, 4 },
  { 586, 0.901498f, 1, 2 },
  { 537, 1.103244f, -1, -2 },
  { 488, 0.884347f, -1, -2 },
  { 4951, 0.621429f, 1, 2 },
  { 4839, 0.784204f, -1, -2 },
  { 1671, 1.946115f, -2, -1 },
  { 582, 1.657448f, 1, 8 },
  { 2357, 1.460762f, 1, 4 },
  { 656, 0.948461f, 1, 2 },
  { 437, 1.089032f, -1, -2 },
  { 462, 0.925942f, -1, -2 },
  { 1983, 1.467771f, 1, 2 },
  { 541, 1.316207f, -1, -2 },
  { 2487, 1.101585f, -2, -1 },
  { 544, 1.379638f, 1, 4 },
  { 2095, 1.669652f, 1, 2 },
  { 3555, 0.808036f, -2, -2 },
  { 2403, 1.769321f, -2, -1 },
  { 447, 1.649097f, 1, 2 },
  { 2432, 1.841092f, -2, -1 },
  { 558, 1.563637f, -2, -2 },
  { 596, 1.539356f, 1, 16 },
  { 2409, 1.056731f, 1, 8 },
  { 539, 0.941134f, 1, 4 },
  { 2542, 0.700298f, 1, 2 },
  { 479, 0.623700f, -1, -2 },
  { 2421, 0.668097f, -2, -1 },
  { 604, 0.873206f, 1, 2 },
  { 2411, 0.845608f, -2, -1 },
  { 502, 0.842196f, -1, -2 },
  { 2397, 0.954832f, 1, 4 },
  { 588, 0.902977f, 1, 2 },
  { 668, 1.139884f, -1, -2 },
  { 539, 0.817795f, -1, -2 },
  { 2256, 0.935632f, 1, 2 },
  { 439, 0.946884f, -1, -2 },
  { 2338, 0.865232f, -2, -1 },
  { 515, 1.459256f, 1, 8 },
  { 2326, 1.351580f, 1, 4 },
  { 1084, 0.984268f, 1, 2 },
  { 1983, 1.057667f, -2, -1 },
  { 455, 1.040405f, -2, -2 },
  { 1806, 1.290990f, 1, 2 },
  { 892, 1.022773f, -1, -2 },
  { 2263, 1.164202f, -2, -1 },
  { 1805, 2.151728f, 1, 4 },
  { 544, 1.288833f, 1, 2 },
  { 1965, 1.475795f, -2, -1 },
  { 668, 1.023942f, -1, -2 },
  { 462, 1.922773f, 1, 2 },
  { 2174, 1.699672f, -2, -1 },
  { 534, 1.787898f, -1, -2 },
  { 483, 1.646712f, 1, 16 },
  { 2439, 1.018770f, 1, 8 },
  { 527, 0.879620f, 1, 4 },
  { 2243, 0.685486f, 1, 2 },
  { 475, 0.594306f, -1, -2 },
  { 4878, 0.509700f, -1, -2 },
  { 489, 0.858600f, 1, 2 },
  { 2382, 0.885748f, -2, -1 },
  { 569, 0.803911f, -1, -2 },
  { 2312, 0.986691f, 1, 4 },
  { 469, 0.899067f, 1, 2 },
  { 2602, 0.682076f, -2, -1 },
  { 878, 0.743856f, -1, -2 },
  { 2565, 0.941870f, 1, 2 },
  { 423, 1.039759f, -1, -2 },
  { 2459, 0.799641f, -2, -1 },
  { 574, 1.562509f, 1, 7 },
  { 2280, 1.510065f, 1, 3 },
  { 399, 0.972976f, -1, 1 },
  { 815, 0.941796f, -1, -2 },
  { 2358, 1.355452f, 1, 2 },
  { 574, 1.266653f, -1, -2 },
  { 2504, 1.172197f, -2, -1 },
  { 1840, 2.195941f, 1, 4 },
  { 576, 1.455181f, 1, 2 },
  { 1687, 1.700895f, -2, -1 },
  { 598, 1.276386f, -2, -2 },
  { 424, 1.882218f, 1, 2 },
  { 2340, 1.816206f, -2, -1 },
  { 517, 1.848913f, -1, -2 },
  { 556, 1.686486f, 1, 16 },
  { 2478, 0.986645f, 1, 8 },
  { 573, 0.825526f, 1, 4 },
  { 2157, 0.701826f, 1, 2 },
  { 454, 0.653509f, -1, -2 },
  { 2562, 0.647005f, -2, -1 },
  { 441, 0.880719f, 1, 2 },
  { 2251, 0.828328f, -2, -1 },
  { 532, 0.783789f, -1, -2 },
  { 2336, 1.031256f, 1, 4 },
  { 415, 0.955085f, 1, 2 },
  { 573, 0.974195f, -1, -2 },
  { 575, 0.929363f, -1, -2 },
  { 2383, 0.939044f, 1, 2 },
  { 525, 0.924943f, -1, -2 },
  { 2265, 0.971806f, -2, -1 },
  { 610, 1.493991f, 1, 7 },
  { 2471, 1.294128f, 1, 3 },
  { 583, 0.842693f, -1, 1 },
  { 620, 1.062687f, -1, -2 },
  { 2075, 1.381281f, 1, 2 },
  { 947, 1.084363f, -1, -2 },
  { 2526, 1.101065f, -2, -1 },
  { 2442, 1.942653f, 1, 4 },
  { 627, 1.050263f, 1, 2 },
  { 1512, 1.798538f, -2, -1 },
  { 449, 1.395422f, -2, -2 },
  { 445, 1.721915f, 1, 2 },
  { 2501, 1.469329f, -2, -1 },
  { 475, 1.692999f, -1, -2 },
  { 572, 1.676698f, 1, 16 },
  { 2443, 1.082544f, 1, 8 },
  { 584, 0.882527f, 1, 4 },
  { 2244, 0.636128f, 1, 2 },
  { 438, 0.543553f, -1, -2 },
  { 2548, 0.631351f, -2, -1 },
  { 435, 0.930691f, 1, 2 },
  { 1916, 0.922470f, -2, -1 },
  { 521, 0.860147f, -1, -2 },
  { 2397, 0.983639f, 1, 4 },
  { 539, 0.913423f, 1, 2 },
  { 2554, 0.689860f, -2, -1 },
  { 978, 0.789750f, -1, -2 },
  { 4923, 0.657075f, 1, 2 },
  { 2357, 0.952476f, -2, -1 },
  { 2332, 1.405387f, -2, -1 },
  { 438, 1.625845f, 1, 8 },
  { 1873, 1.579442f, 1, 4 },
  { 633, 1.249767f, 1, 2 },
  { 2378, 1.092392f, -2, -1 },
  { 563, 1.022918f, -1, -2 },
  { 2467, 1.443099f, 1, 2 },
  { 1706, 2.096263f, -2, -1 },
  { 1957, 1.044889f, -2, -1 },
  { 1846, 2.106029f, 1, 4 },
  { 483, 1.444645f, 1, 2 },
  { 2635, 1.753502f, -2, -1 },
  { 445, 1.234851f, -2, -2 },
  { 515, 1.799030f, 1, 2 },
  { 2323, 1.614136f, -2, -1 },
  { 604, 1.628035f, -1, -2 },
  { 470, 1.684418f, 1, 16 },
  { 2254, 1.103390f, 1, 8 },
  { 462, 0.950583f, 1, 4 },
  { 2508, 0.633456f, 1, 2 },
  { 453, 0.567599f, -1, -2 },
  { 2256, 0.674430f, -2, -1 },
  { 530, 0.813186f, 1, 2 },
  { 1869, 0.822793f, -2, -1 },
  { 465, 0.881732f, -1, -2 },
  { 2412, 0.988178f, 1, 4 },
  { 409, 0.958820f, 1, 2 },
  { 4528, 0.658392f, -1, -2 },
  { 551, 0.971916f, -1, -2 },
  { 2342, 0.983099f, 1, 2 },
  { 682, 0.990691f, -1, -2 },
  { 4791, 0.774696f, -1, -2 },
  { 555, 1.572490f, 1, 8 },
  { 1916, 1.517929f, 1, 4 },
  { 460, 1.042611f, 1, 2 },
  { 2526, 1.038542f, -2, -1 },
  { 537, 0.967905f, -1, -2 },
  { 1838, 1.301600f, 1, 2 },
  { 602, 1.206453f, -1, -2 },
  { 2114, 1.266340f, -2, -1 },
  { 446, 1.606381f, 1, 4 },
  { 1805, 1.814969f, 1, 2 },
  { 621, 0.975974f, -1, -2 },
  { 2490, 1.379058f, -2, -1 },
  { 546, 1.593248f, 1, 2 },
  { 1770, 2.016743f, -2, -1 },
  { 2413, 2.120349f, -2, -2 },
  { 592, 1.560241f, 1, 16 },
  { 2385, 1.046392f, 1, 8 },
  { 550, 0.844854f, 1, 4 },
  { 2378, 0.646522f, 1, 2 },
  { 399, 0.647075f, -1, -2 },
  { 2542, 0.641039f, -2, -1 },
  { 466, 0.837896f, 1, 2 },
  { 1818, 0.849475f, -2, -1 },
  { 568, 0.834342f, -2, -2 },
  { 2264, 0.949344f, 1, 4 },
  { 905, 0.822019f, 1, 2 },
  { 471, 1.008001f, -1, -2 },
  { 442, 0.838533f, -1, -2 },
  { 2342, 0.959435f, 1, 2 },
  { 542, 0.945766f, -1, -2 },
  { 4835, 0.882125f, -1, -2 },
  { 541, 1.553870f, 1, 8 },
  { 1839, 1.600301f, 1, 4 },
  { 433, 1.019622f, 1, 2 },
  { 2940, 1.004209f, -1, -1 },
  { 567, 1.045524f, -1, -2 },
  { 2276, 1.296677f, 1, 2 },
  { 798, 1.162338f, -1, -2 },
  { 2417, 1.209111f, -2, -1 },
  { 511, 1.495715f, 1, 4 },
  { 2220, 1.565028f, 1, 2 },
  { 769, 1.177907f, -2, -2 },
  { 2403, 1.470661f, -2, -1 },
  { 632, 1.498904f, 1, 2 },
  { 2415, 1.711918f, -2, -1 },
  { 463, 1.347699f, -1, -2 },
  { 590, 1.646900f, 1, 16 },
  { 2386, 1.075137f, 1, 8 },
  { 559, 0.880387f, 1, 4 },
  { 2259, 0.659822f, 1, 2 },
  { 494, 0.573393f, -1, -2 },
  { 2329, 0.742624f, -1, -1 },
  { 651, 0.790612f, 1, 2 },
  { 2174, 0.791371f, -2, -1 },
  { 566, 0.828956f, -1, -2 },
  { 2359, 0.956629f, 1, 4 },
  { 747, 0.869088f, 1, 2 },
  { 2397, 0.706227f, -2, -1 },
  { 547, 0.822844f, -1, -2 },
  { 2336, 1.040743f, 1, 2 },
  { 943, 1.031352f, -1, -2 },
  { 2402, 0.956723f, -2, -1 },
  { 502, 1.554815f, 1, 7 },
  { 1737, 1.707678f, 1, 4 },
  { 632, 0.964619f, 1, 2 },
  { 2970, 0.855451f, -2, -1 },
  { 545, 1.134914f, -1, -2 },
  { 1817, 1.267530f, -2, 1 },
  { 2549, 0.952369f, -2, -1 },
  { 470, 1.478565f, 1, 4 },
  { 1894, 1.693676f, 1, 2 },
  { 821, 1.317473f, -2, -2 },
  { 2611, 1.255086f, -2, -1 },
  { 529, 1.510235f, 1, 2 },
  { 1830, 1.661556f, -2, -1 },
  { 459, 1.301487f, -1, -2 },
  { 558, 1.635377f, 1, 16 },
  { 2377, 1.086262f, 1, 8 },
  { 649, 0.946853f, 1, 4 },
  { 2292, 0.683082f, 1, 2 },
  { 333, 0.611911f, -1, -2 },
  { 2414, 0.624961f, -2, -1 },
  { 454, 0.843354f, 1, 2 },
  { 1815, 0.843408f, -2, -1 },
  { 587, 0.829212f, -1, -2 },
  { 2375, 0.975381f, 1, 4 },
  { 598, 0.863172f, 1, 2 },
  { 3741, 1.055456f, -1, -2 },
  { 423, 0.819350f, -1, -2 },
  { 2504, 1.013793f, 1, 2 },
  { 531, 1.045680f, -1, -2 },
  { 2540, 0.882435f, -2, -1 },
  { 638, 1.473104f, 1, 8 },
  { 2359, 1.420481f, 1, 4 },
  { 631, 1.082045f, 1, 2 },
  { 5182, -0.954281f, -1, -2 },
  { 464, 1.139235f, -1, -2 },
  { 2423, 1.244198f, 1, 2 },
  { 288, 1.069328f, -1, -2 },
  { 2636, 1.030136f, -2, -1 },
  { 462, 1.593199f, 1, 4 },
  { 1707, 1.851481f, 1, 2 },
  { 1696, 2.603518f, -2, -1 },
  { 2410, 1.466920f, -2, -1 },
  { 537, 1.375555f, 1, 2 },
  { 2094, 1.717082f, -2, -1 },
  { 2350, 2.254854f, -2, -2 },
  { 599, 1.736384f, 1, 16 },
  { 2258, 1.209513f, 1, 8 },
  { 520, 0.961723f, 1, 4 },
  { 2316, 0.696501f, 1, 2 },
  { 436, 0.642022f, -1, -2 },
  { 2226, 0.763251f, -2, -1 },
  { 566, 0.945961f, 1, 2 },
  { 2581, 0.930441f, -2, -1 },
  { 438, 0.856407f, -1, -2 },
  { 2355, 1.015031f, 1, 4 },
  { 411, 0.943689f, 1, 2 },
  { 2411, 0.806014f, -2, -1 },
  { 795, 0.860525f, -1, -2 },
  { 2305, 0.968507f, 1, 2 },
  { 575, 0.894660f, -1, -2 },
  { 4924, 0.692838f, -1, -2 },
  { 455, 1.556294f, 1, 7 },
  { 1995, 1.471026f, 1, 3 },
  { 695, 0.997367f, -1, 1 },
  { 736, 1.004782f, -1, -2 },
  { 2304, 1.417665f, 1, 2 },
  { 576, 1.285199f, -1, -2 },
  { 2061, 1.088505f, -2, -1 },
  { 523, 1.543927f, 1, 4 },
  { 1902, 1.900210f, 1, 2 },
  { 588, 1.079142f, -1, -2 },
  { 2266, 1.568733f, -2, -1 },
  { 610, 1.421449f, 1, 2 },
  { 2276, 1.702989f, -2, -1 },
  { 373, 1.455311f, -2, -2 },
  { 588, 1.781547f, 1, 16 },
  { 2374, 1.056445f, 1, 8 },
  { 587, 0.872956f, 1, 4 },
  { 2236, 0.664601f, 1, 2 },
  { 312, 0.570139f, -1, -2 },
  { 2255, 0.696001f, -2, -1 },
  { 550, 0.861839f, 1, 2 },
  { 2389, 0.809359f, -2, -1 },
  { 454, 0.802628f, -1, -2 },
  { 2395, 1.038238f, 1, 4 },
  { 597, 0.943091f, 1, 2 },
  { 3607, 0.920934f, -1, -2 },
  { 570, 0.866330f, -1, -2 },
  { 2393, 1.054877f, 1, 2 },
  { 486, 1.109412f, -1, -2 },
  { 2326, 1.005129f, -2, -1 },
  { 467, 1.620897f, 1, 7 },
  { 1859, 1.785213f, 1, 4 },
  { 438, 1.239934f, 1, 2 },
  { 2221, 1.160710f, -2, -1 },
  { 799, 1.045053f, -1, -2 },
  { 2445, 1.143861f, -2, 1 },
  { 2133, 1.170304f, -2, -1 },
  { 621, 1.554603f, 1, 4 },
  { 2225, 1.749664f, 1, 2 },
  { 564, 1.245831f, -1, -2 },
  { 2439, 1.646925f, -2, -1 },
  { 477, 1.381865f, 1, 2 },
  { 2204, 1.753528f, -2, -1 },
  { 404, 1.387680f, -1, -2 },
  { 708, 1.631849f, 1, 16 },
  { 2290, 1.156271f, 1, 8 },
  { 588, 0.967752f, 1, 4 },
  { 2537, 0.709256f, 1, 2 },
  { 601, 0.648345f, -1, -2 },
  { 2224, 0.718997f, -2, -1 },
  { 411, 0.899675f, 1, 2 },
  { 2457, 0.856590f, -2, -1 },
  { 518, 0.895196f, -1, -2 },
  { 2355, 0.961336f, 1, 4 },
  { 691, 0.892155f, 1, 2 },
  { 3251, 1.145274f, -1, -2 },
  { 449, 0.861795f, -1, -2 },
  { 2376, 1.081083f, 1, 2 },
  { 667, 1.060080f, -1, -2 },
  { 2362, 0.982055f, -2, -1 },
  { 607, 1.549556f, 1, 8 },
  { 2436, 1.449846f, 1, 4 },
  { 507, 1.134799f, 1, 2 },
  { 2344, 1.155331f, -2, -1 },
  { 637, 1.027897f, -1, -2 },
  { 2214, 1.295041f, 1, 2 },
  { 291, 0.955053f, -2, -2 },
  { 2413, 1.271831f, -2, -1 },
  { 583, 1.581395f, 1, 4 },
  { 1819, 1.778239f, 1, 2 },
  { 1606, 2.264296f, -2, -1 },
  { 1825, 1.573648f, -2, -1 },
  { 517, 1.568285f, 1, 2 },
  { 2099, 2.062486f, -2, -1 },
  { 390, 1.369706f, -2, -2 },
  { 603, 1.627867f, 1, 16 },
  { 2367, 1.011180f, 1, 8 },
  { 481, 0.922980f, 1, 4 },
  { 2245, 0.710864f, 1, 2 },
  { 363, 0.621488f, -1, -2 },
  { 2310, 0.657211f, -2, -1 },
  { 432, 0.822775f, 1, 2 },
  { 2045, 0.713701f, -2, -1 },
  { 507, 0.763108f, -1, -2 },
  { 2524, 0.961410f, 1, 4 },
  { 418, 0.990530f, 1, 2 },
  { 3111, 1.139960f, -1, -2 },
  { 618, 0.785921f, -1, -2 },
  { 2489, 0.927429f, 1, 2 },
  { 721, 0.918801f, -1, -2 },
  { 4847, 0.749989f, -1, -2 },
  { 465, 1.462773f, 1, 8 },
  { 2457, 1.370900f, 1, 4 },
  { 685, 1.075328f, 1, 2 },
  { 2258, 1.124085f, -2, -1 },
  { 550, 1.041661f, -1, -2 },
  { 2486, 1.227494f, 1, 2 },
  { 1289, 1.111578f, -2, -2 },
  { 1830, 1.009700f, -2, -1 },
  { 520, 1.546257f, 1, 4 },
  { 1912, 1.729171f, 1, 2 },
  { 394, 1.089180f, -1, -2 },
  { 2465, 1.529753f, -2, -1 },
  { 584, 1.583292f, 1, 2 },
  { 1800, 2.014753f, -2, -1 },
  { 570, 1.522898f, -2, -2 },
  { 605, 1.630369f, 1, 16 },
  { 2390, 0.990465f, 1, 8 },
  { 590, 0.831208f, 1, 4 },
  { 2271, 0.668909f, 1, 2 },
  { 482, 0.583451f, -1, -2 },
  { 1823, 0.695723f, -2, -1 },
  { 576, 0.773615f, 1, 2 },
  { 1741, 0.835822f, -2, -1 },
  { 493, 0.744276f, -1, -2 },
  { 2557, 0.960924f, 1, 4 },
  { 582, 0.903361f, 1, 2 },
  { 3661, 1.007290f, -1, -2 },
  { 503, 0.923478f, -1, -2 },
  { 2323, 1.001923f, 1, 2 },
  { 478, 0.958639f, -1, -2 },
  { 4913, 0.676680f, -1, -2 },
  { 482, 1.519186f, 1, 8 },
  { 2583, 1.282087f, 1, 4 },
  { 657, 1.164449f, 1, 2 },
  { 2501, 1.150401f, -2, -1 },
  { 5220, -2.803350f, -2, -2 },
  { 2486, 1.156280f, 1, 2 },
  { 998, 0.942049f, -1, -2 },
  { 1779, 1.323935f, -2, -1 },
  { 1847, 2.175880f, 1, 4 },
  { 561, 1.173865f, 1, 2 },
  { 2090, 1.492155f, -2, -1 },
  { 421, 1.101301f, -1, -2 },
  { 588, 1.791510f, 1, 2 },
  { 2388, 1.361303f, -2, -1 },
  { 463, 1.778224f, -1, -2 },
  { 479, 1.686080f, 1, 16 },
  { 2452, 1.081044f, 1, 8 },
  { 469, 0.959450f, 1, 4 },
  { 2292, 0.701955f, 1, 2 },
  { 308, 0.617557f, -1, -2 },
  { 2360, 0.697804f, -2, -1 },
  { 526, 0.902420f, 1, 2 },
  { 2201, 0.891887f, -2, -1 },
  { 490, 0.846929f, -1, -2 },
  { 2386, 1.042966f, 1, 4 },
  { 444, 0.996728f, 1, 2 },
  { 4622, 0.700453f, -1, -2 },
  { 521, 0.898667f, -1, -2 },
  { 2488, 0.903137f, 1, 2 },
  { 604, 1.005286f, -1, -2 },
  { 2388, 0.921683f, -2, -1 },
  { 610, 1.493753f, 1, 8 },
  { 1810, 1.635935f, 1, 4 },
  { 1069, 1.035746f, 1, 2 },
  { 2495, 0.933731f, -2, -1 },
  { 458, 0.970938f, -1, -2 },
  { 2270, 1.306972f, 1, 2 },
  { 348, 1.211046f, -1, -2 },
  { 2513, 1.135871f, -2, -1 },
  { 424, 1.496339f, 1, 4 },
  { 1792, 1.730906f, 1, 2 },
  { 416, 1.320082f, -2, -2 },
  { 2127, 1.411846f, -2, -1 },
  { 2380, 2.093392f, 1, 2 },
  { 558, 1.054042f, -1, -2 },
  { 2444, 1.842413f, -2, -1 },
  { 609, 1.606800f, 1, 16 },
  { 2531, 1.053637f, 1, 8 },
  { 483, 0.990773f, 1, 4 },
  { 2503, 0.687656f, 1, 2 },
  { 486, 0.631703f, -1, -2 },
  { 2559, 0.650469f, -2, -1 },
  { 382, 0.895301f, 1, 2 },
  { 2385, 0.736597f, -2, -1 },
  { 572, 0.809359f, -1, -2 },
  { 2285, 1.055918f, 1, 4 },
  { 435, 0.983221f, 1, 2 },
  { 4143, 0.872379f, -1, -2 },
  { 638, 0.815323f, -1, -2 },
  { 2566, 0.947113f, 1, 2 },
  { 419, 0.996486f, -1, -2 },
  { 4824, 0.820125f, -1, -2 },
  { 555, 1.625691f, 1, 8 },
  { 2353, 1.608807f, 1, 4 },
  { 519, 1.171611f, 1, 2 },
  { 2883, 0.712445f, -2, -1 },
  { 571, 1.202564f, -1, -2 },
  { 1879, 1.530964f, 1, 2 },
  { 452, 1.606170f, -1, -2 },
  { 2179, 1.215343f, -2, -1 },
  { 585, 1.579583f, 1, 4 },
  { 2079, 1.704327f, 1, 2 },
  { 605, 1.194209f, -1, -2 },
  { 2515, 1.636635f, -2, -1 },
  { 443, 1.362551f, 1, 2 },
  { 2473, 1.566015f, -2, -1 },
  { 539, 1.323724f, -1, -2 },
  { 475, 1.683660f, 1, 16 },
  { 2274, 1.106411f, 1, 8 },
  { 445, 0.952192f, 1, 4 },
  { 2281, 0.676984f, 1, 2 },
  { 486, 0.643625f, -1, -2 },
  { 2376, 0.672035f, -2, -1 },
  { 483, 0.846890f, 1, 2 },
  { 2363, 0.728726f, -2, -1 },
  { 552, 0.828100f, -1, -2 },
  { 2433, 0.956093f, 1, 4 },
  { 537, 0.910359f, 1, 2 },
  { 2539, 0.793404f, -1, -1 },
  { 638, 0.815826f, -1, -2 },
  { 2280, 0.955821f, 1, 2 },
  { 947, 0.874069f, -1, -2 },
  { 2489, 1.002274f, -2, -1 },
  { 541, 1.554170f, 1, 8 },
  { 1814, 1.575083f, 1, 4 },
  { 510, 1.136528f, 1, 2 },
  { 1998, 1.238931f, -2, -1 },
  { 547, 1.034422f, -1, -2 },
  { 2360, 1.328409f, 1, 2 },
  { 998, 1.184017f, -1, -2 },
  { 1834, 1.332987f, -2, -1 },
  { 553, 1.488982f, 1, 4 },
  { 1741, 1.678507f, 1, 2 },
  { 478, 1.364999f, -1, -2 },
  { 2552, 1.271981f, -2, -1 },
  { 2490, 1.917632f, 1, 2 },
  { 682, 0.964799f, -1, -2 },
  { 645, 1.734596f, -1, -2 },
  { 562, 1.482886f, 1, 16 },
  { 2274, 1.127593f, 1, 8 },
  { 444, 0.980402f, 1, 4 },
  { 2292, 0.663608f, 1, 2 },
  { 512, 0.605788f, -1, -2 },
  { 2243, 0.652561f, -2, -1 },
  { 524, 0.880651f, 1, 2 },
  { 2092, 0.849799f, -2, -1 },
  { 477, 0.879436f, -2, -2 },
  { 2431, 0.986805f, 1, 4 },
  { 603, 0.882018f, 1, 2 },
  { 2276, 0.856571f, -2, -1 },
  { 409, 0.803349f, -1, -2 },
  { 2365, 0.898923f, 1, 2 },
  { 479, 0.965471f, -1, -2 },
  { 4928, 0.784923f, -1, -2 },
  { 2414, 1.704117f, 1, 8 },
  { 480, 1.158185f, 1, 4 },
  { 2255, 1.089767f, 1, 2 },
  { 1152, 0.990901f, -1, -2 },
  { 3898, 1.230129f, -1, -1 },
  { 559, 1.111817f, 1, 2 },
  { 1863, 1.347415f, -2, -1 },
  { 545, 1.062171f, -1, -2 },
  { 568, 1.950720f, 1, 4 },
  { 2406, 1.488249f, 1, 2 },
  { 548, 1.111270f, -1, -2 },
  { 1882, 1.548364f, -2, -1 },
  { 450, 1.615826f, 1, 2 },
  { 2255, 1.488821f, -2, -1 },
  { 465, 1.697689f, -1, -2 },
  { 588, 1.765970f, 1, 16 },
  { 2366, 1.160945f, 1, 8 },
  { 523, 0.936791f, 1, 4 },
  { 2133, 0.739799f, 1, 2 },
  { 440, 0.677866f, -1, -2 },
  { 2601, 0.676185f, -2, -1 },
  { 602, 0.858932f, 1, 2 },
  { 1742, 0.864414f, -2, -1 },
  { 575, 0.846802f, -1, -2 },
  { 2392, 1.102083f, 1, 4 },
  { 478, 1.015385f, 1, 2 },
  { 2331, 0.847885f, -2, -1 },
  { 410, 0.903021f, -1, -2 },
  { 2359, 0.997280f, 1, 2 },
  { 374, 1.053094f, -1, -2 },
  { 2311, 0.962882f, -2, -1 },
  { 2262, 1.958484f, 1, 6 },
  { 523, 1.275926f, 1, 3 },
  { 2599, 1.054562f, -2, 1 },
  { 3861, 0.550700f, -1, -1 },
  { 571, 1.054406f, -1, 1 },
  { 434, 1.277989f, -1, -2 },
  { 478, 1.957054f, 1, 4 },
  { 1949, 1.599651f, 1, 2 },
  { 393, 1.301184f, -1, -2 },
  { 2214, 1.416330f, -2, -1 },
  { 528, 1.608029f, 1, 2 },
  { 1832, 1.739348f, -2, -1 },
  { 535, 1.602812f, -1, -2 },
  { 434, 1.664274f, 1, 16 },
  { 2336, 1.055901f, 1, 8 },
  { 484, 0.942239f, 1, 4 },
  { 2558, 0.667179f, 1, 2 },
  { 451, 0.593356f, -1, -2 },
  { 2188, 0.678369f, -2, -1 },
  { 554, 0.854816f, 1, 2 },
  { 2212, 0.719107f, -2, -1 },
  { 538, 0.781126f, -1, -2 },
  { 2396, 1.023908f, 1, 4 },
  { 539, 0.926971f, 1, 2 },
  { 2227, 0.783234f, -2, -1 },
  { 535, 0.930235f, -1, -2 },
  { 2604, 0.907236f, 1, 2 },
  { 567, 1.016824f, -1, -2 },
  { 2549, 0.867945f, -2, -1 },
  { 519, 1.517565f, 1, 8 },
  { 1768, 1.452485f, 1, 4 },
  { 534, 0.918019f, 1, 2 },
  { 5049, -1.013170f, -1, -1 },
  { 978, 0.711098f, -1, -2 },
  { 2111, 1.270574f, 1, 2 },
  { 344, 1.305694f, -1, -2 },
  { 1890, 1.203045f, -2, -1 },
  { 575, 1.504596f, 1, 4 },
  { 2243, 1.635041f, 1, 2 },
  { 447, 1.227949f, -1, -2 },
  { 2323, 1.461625f, -2, -1 },
  { 586, 1.269577f, 1, 2 },
  { 2039, 1.606938f, -2, -1 },
  { 568, 1.585872f, -2, -2 },
  { 445, 1.727201f, 1, 16 },
  { 2405, 1.049606f, 1, 8 },
  { 564, 0.827306f, 1, 4 },
  { 2253, 0.658118f, 1, 2 },
  { 489, 0.558110f, -1, -2 },
  { 2627, 0.639702f, -2, -1 },
  { 487, 0.783335f, 1, 2 },
  { 2254, 0.809977f, -2, -1 },
  { 420, 0.815168f, -1, -2 },
  { 2464, 0.990557f, 1, 4 },
  { 731, 0.957905f, 1, 2 },
  { 2240, 0.763843f, -2, -1 },
  { 477, 0.928658f, -1, -2 },
  { 2273, 1.020778f, 1, 2 },
  { 575, 1.031659f, -1, -2 },
  { 4975, 0.624136f, -1, -2 },
  { 556, 1.592112f, 1, 8 },
  { 2448, 1.469272f, 1, 4 },
  { 503, 1.173454f, 1, 2 },
  { 1838, 1.108238f, -2, -1 },
  { 2338, 2.746938f, -2, -1 },
  { 1986, 1.255896f, 1, 2 },
  { 687, 1.203072f, -2, -2 },
  { 2528, 1.073270f, -2, -1 },
  { 490, 1.485584f, 1, 4 },
  { 2186, 1.648171f, 1, 2 },
  { 55, 0.586050f, -2, -2 },
  { 2245, 1.597997f, -2, -1 },
  { 610, 1.417500f, 1, 2 },
  { 2595, 1.555473f, -2, -1 },
  { 495, 1.405784f, -1, -2 },
  { 583, 1.592204f, 1, 16 },
  { 2421, 0.966008f, 1, 8 },
  { 502, 0.825780f, 1, 4 },
  { 2365, 0.691266f, 1, 2 },
  { 315, 0.600333f, -1, -2 },
  { 2369, 0.602871f, -2, -1 },
  { 618, 0.813154f, 1, 2 },
  { 1631, 0.792675f, -2, -1 },
  { 1177, 0.622259f, -1, -2 },
  { 2392, 0.963055f, 1, 4 },
  { 557, 0.912479f, 1, 2 },
  { 2725, 0.589167f, -2, -1 },
  { 437, 0.944910f, -1, -2 },
  { 4810, 0.804950f, 1, 2 },
  { 2493, 0.909549f, -2, -1 },
  { 193, -2.561445f, -1, -2 },
  { 512, 1.474919f, 1, 8 },
  { 2476, 1.351484f, 1, 4 },
  { 584, 1.109462f, 1, 2 },
  { 2997, 0.836573f, -2, -1 },
  { 1637, 2.101973f, -2, -1 },
  { 2381, 1.336560f, 1, 2 },
  { 2662, 1.403985f, -1, -2 },
  { 2341, 1.087167f, -2, -1 },
  { 441, 1.458755f, 1, 4 },
  { 1850, 1.601801f, 1, 2 },
  { 2213, 1.809015f, -2, -1 },
  { 2080, 1.270794f, -2, -1 },
  { 1801, 2.210354f, 1, 2 },
  { 650, 1.107933f, -1, -2 },
  { 470, 2.011707f, -1, -2 },
  { 565, 1.548988f, 1, 16 },
  { 2443, 0.975263f, 1, 8 },
  { 545, 0.781797f, 1, 4 },
  { 2161, 0.611710f, 1, 2 },
  { 297, 0.555895f, -1, -2 },
  { 2490, 0.644168f, -2, -1 },
  { 610, 0.800620f, 1, 2 },
  { 2484, 0.739391f, -2, -1 },
  { 526, 0.677569f, -1, -2 },
  { 2407, 0.912096f, 1, 4 },
  { 449, 0.913885f, 1, 2 },
  { 2479, 0.692850f, -2, -1 },
  { 747, 0.758267f, -1, -2 },
  { 2478, 0.875612f, 1, 2 },
  { 559, 0.919901f, -1, -2 },
  { 2452, 0.849595f, -2, -1 },
  { 2521, 1.759592f, 1, 7 },
  { 603, 1.185452f, 1, 3 },
  { 2317, 1.108742f, -2, 1 },
  { 2617, 1.088121f, -2, -1 },
  { 477, 1.270763f, 1, 2 },
  { 1820, 1.283962f, -2, -1 },
  { 484, 1.110347f, -1, -2 },
  { 2360, 1.819627f, 1, 4 },
  { 3513, 1.393935f, 1, 2 },
  { 1086, 1.652019f, -1, -2 },
  { 686, 1.241107f, -2, -2 },
  { 589, 2.092360f, 1, 2 },
  { 4809, 0.905163f, -1, -2 },
  { 624, 1.834951f, -1, -2 },
  { 604, 1.627667f, 1, 16 },
  { 2504, 1.007040f, 1, 8 },
  { 625, 0.917376f, 1, 4 },
  { 2233, 0.688261f, 1, 2 },
  { 521, 0.611673f, -1, -2 },
  { 2252, 0.689872f, -2, -1 },
  { 426, 0.809548f, 1, 2 },
  { 1851, 0.821071f, -2, -1 },
  { 576, 0.715401f, -1, -2 },
  { 2461, 0.978129f, 1, 4 },
  { 509, 0.876164f, 1, 2 },
  { 3110, 1.023091f, -1, -2 },
  { 391, 0.874534f, -1, -2 },
  { 2449, 0.967127f, 1, 2 },
  { 472, 1.013666f, -1, -2 },
  { 2435, 0.962099f, -2, -1 },
  { 411, 1.502958f, 1, 7 },
  { 2087, 1.581580f, 1, 4 },
  { 467, 1.219703f, 1, 2 },
  { 1708, 1.068334f, -2, -1 },
  { 530, 0.973116f, -1, -2 },
  { 2461, 1.211225f, -2, 1 },
  { 1902, 1.165469f, -2, -1 },
  { 514, 1.538127f, 1, 4 },
  { 1755, 1.617830f, 1, 2 },
  { 367, 1.021767f, -1, -2 },
  { 2488, 1.420694f, -2, -1 },
  { 443, 1.430470f, 1, 2 },
  { 1631, 1.668828f, -2, -1 },
  { 1808, 2.449784f, -2, -2 },
  { 505, 1.783249f, 1, 16 },
  { 2444, 0.989052f, 1, 8 },
  { 588, 0.860502f, 1, 4 },
  { 2254, 0.689074f, 1, 2 },
  { 471, 0.587214f, -1, -2 },
  { 2246, 0.705380f, -2, -1 },
  { 503, 0.947735f, 1, 2 },
  { 2298, 0.891120f, -2, -1 },
  { 544, 0.784681f, -1, -2 },
  { 2354, 1.024737f, 1, 4 },
  { 523, 0.916949f, 1, 2 },
  { 4067, 0.955167f, -1, -2 },
  { 499, 0.859896f, -1, -2 },
  { 2441, 1.036584f, 1, 2 },
  { 540, 0.985199f, -1, -2 },
  { 2521, 0.903601f, -2, -1 },
  { 578, 1.529281f, 1, 7 },
  { 1885, 1.421594f, 1, 4 },
  { 434, 1.164637f, 1, 2 },
  { 3603, 0.966208f, -1, -1 },
  { 2474, 1.618578f, -2, -1 },
  { 2378, 1.171137f, -2, 1 },
  { 1942, 1.209937f, -2, -1 },
  { 569, 1.462671f, 1, 4 },
  { 1666, 1.804991f, 1, 2 },
  { 2335, 1.934952f, -2, -1 },
  { 4506, 0.079388f, -2, -1 },
  { 580, 1.376990f, 1, 2 },
  { 1870, 1.734667f, -2, -1 },
  { 462, 1.261637f, -1, -2 },
  { 577, 1.616422f, 1, 16 },
  { 2382, 1.106411f, 1, 8 },
  { 615, 0.906212f, 1, 4 },
  { 2291, 0.648444f, 1, 2 },
  { 606, 0.573531f, -1, -2 },
  { 4864, 0.588214f, -1, -2 },
  { 474, 0.880990f, 1, 2 },
  { 1885, 0.966794f, -2, -1 },
  { 524, 0.824776f, -1, -2 },
  { 4862, 0.655298f, 1, 4 },
  { 2339, 0.971681f, 1, 2 },
  { 923, 0.942457f, -1, -2 },
  { 2379, 0.995040f, -2, -1 },
  { 1923, 1.738618f, 1, 2 },
  { 481, 0.853024f, -1, -2 },
  { 155, -0.368998f, -1, -2 },
  { 529, 1.494125f, 1, 7 },
  { 2472, 1.364048f, 1, 3 },
  { 587, 0.883997f, -1, 1 },
  { 1938, 2.378235f, -2, -1 },
  { 2314, 1.170156f, 1, 2 },
  { 429, 1.389734f, -1, -2 },
  { 2474, 1.236988f, -2, -1 },
  { 611, 1.431532f, 1, 4 },
  { 2416, 1.545094f, 1, 2 },
  { 468, 1.164252f, -1, -2 },
  { 2443, 1.310217f, -2, -1 },
  { 446, 1.388382f, 1, 2 },
  { 2381, 1.587500f, -2, -1 },
  { 510, 1.346546f, -1, -2 },
  { 572, 1.597141f, 1, 16 },
  { 2474, 1.026251f, 1, 8 },
  { 671, 0.891444f, 1, 4 },
  { 2551, 0.665898f, 1, 2 },
  { 358, 0.665904f, -1, -2 },
  { 2481, 0.680110f, -2, -1 },
  { 569, 0.816176f, 1, 2 },
  { 2337, 0.817509f, -2, -1 },
  { 543, 0.875049f, -1, -2 },
  { 2353, 1.029677f, 1, 4 },
  { 463, 0.984830f, 1, 2 },
  { 1791, 0.837396f, -2, -1 },
  { 676, 0.872163f, -1, -2 },
  { 2484, 0.881545f, 1, 2 },
  { 559, 0.956491f, -1, -2 },
  { 2398, 0.935679f, -2, -1 },
  { 558, 1.577032f, 1, 7 },
  { 2286, 1.391737f, 1, 3 },
  { 453, 0.984064f, -1, 1 },
  { 434, 0.991734f, -1, -2 },
  { 2449, 1.141213f, 1, 2 },
  { 624, 1.218283f, -2, -2 },
  { 1990, 1.287057f, -2, -1 },
  { 617, 1.447124f, 1, 4 },
  { 2173, 1.644737f, 1, 2 },
  { 349, 1.229657f, -2, -2 },
  { 1796, 1.535627f, -2, -1 },
  { 595, 1.258025f, 1, 2 },
  { 2269, 1.713399f, -2, -1 },
  { 471, 1.374779f, -1, -2 },
  { 510, 1.673054f, 1, 16 },
  { 2404, 1.004326f, 1, 8 },
  { 449, 0.916516f, 1, 4 },
  { 2168, 0.641384f, 1, 2 },
  { 523, 0.559020f, -1, -2 },
  { 459, 0.759851f, -1, -1 },
  { 538, 0.832414f, 1, 2 },
  { 2350, 0.758449f, -2, -1 },
  { 481, 0.875003f, -1, -2 },
  { 2410, 0.968397f, 1, 4 },
  { 619, 0.872072f, 1, 2 },
  { 3252, 1.140100f, -1, -2 },
  { 448, 0.892853f, -1, -2 },
  { 2351, 0.984721f, 1, 2 },
  { 548, 0.963478f, -1, -2 },
  { 2210, 0.879370f, -2, -1 },
  { 460, 1.566103f, 1, 8 },
  { 1935, 1.439506f, 1, 4 },
  { 604, 1.131728f, 1, 2 },
  { 2849, 0.811222f, -2, -1 },
  { 700, 0.906158f, -1, -2 },
  { 2436, 1.284886f, 1, 2 },
  { 1070, 1.112428f, -1, -2 },
  { 2083, 1.165727f, -2, -1 },
  { 2267, 1.972593f, 1, 4 },
  { 481, 1.260537f, 1, 2 },
  { 1876, 1.759215f, -2, -1 },
  { 626, 1.006310f, -1, -2 },
  { 526, 1.895571f, 1, 2 },
  { 2420, 1.541101f, -2, -1 },
  { 451, 1.794475f, -1, -2 },
  { 647, 1.608437f, 1, 16 },
  { 2384, 1.087946f, 1, 8 },
  { 501, 0.927926f, 1, 4 },
  { 2342, 0.641784f, 1, 2 },
  { 494, 0.598897f, -1, -2 },
  { 2245, 0.705213f, -2, -1 },
  { 433, 0.839475f, 1, 2 },
  { 2205, 0.881758f, -2, -1 },
  { 466, 0.845972f, -1, -2 },
  { 2282, 1.057206f, 1, 4 },
  { 489, 0.958720f, 1, 2 },
  { 4709, 0.819976f, -1, -2 },
  { 550, 1.024093f, -1, -2 },
  { 4886, 0.702257f, 1, 2 },
  { 2503, 0.939853f, -2, -1 },
  { 1921, 1.860804f, -2, -1 },
  { 435, 1.548589f, 1, 8 },
  { 1976, 1.495538f, 1, 4 },
  { 560, 1.052457f, 1, 2 },
  { 1622, 1.090506f, -2, -1 },
  { 2131, 1.986939f, -2, -1 },
  { 2142, 1.242252f, 1, 2 },
  { 703, 1.108374f, -1, -2 },
  { 2307, 1.266115f, -2, -1 },
  { 589, 1.427518f, 1, 4 },
  { 1620, 1.708342f, 1, 2 },
  { 444, 1.270310f, -1, -2 },
  { 4102, 1.538725f, -1, -2 },
  { 1832, 2.211016f, 1, 2 },
  { 481, 1.280726f, -1, -2 },
  { 524, 1.881643f, -1, -2 } 
};

static const int32_t dt_tree_roots[100] = { 0, 31, 62, 93, 123, 154, 185, 215, 246, 277, 308, 339, 370, 400, 430, 461, 492, 521, 552, 582, 613, 644, 675, 704, 734, 765, 795, 826, 855, 886, 916, 946, 977, 1008, 1039, 1070, 1101, 1131, 1162, 1192, 1221, 1252, 1282, 1313, 1344, 1374, 1405, 1436, 1467, 1497, 1528, 1558, 1589, 1619, 1650, 1681, 1711, 1742, 1771, 1802, 1832, 1862, 1893, 1923, 1954, 1985, 2014, 2045, 2075, 2106, 2136, 2166, 2197, 2228, 2258, 2288, 2319, 2350, 2381, 2411, 2442, 2472, 2502, 2533, 2564, 2595, 2626, 2657, 2688, 2719, 2748, 2779, 2810, 2841, 2871, 2901, 2931, 2961, 2991, 3022 };

static const uint32_t dt_leaves[2] = { 0, 1 };

EmlTrees dt = {
        3053,
        (EmlTreesNode *)(dt_nodes),	  
        100,
        (int32_t *)(dt_tree_roots),
        2,
        (uint32_t *)(dt_leaves),
        0,
        5301,
        2,
    };

static inline int32_t dt_tree_0(const float *features, int32_t features_length) {
          if (features[525] < 1.675197f) {
              if (features[2538] < 1.021851f) {
                  if (features[533] < 0.832138f) {
                      if (features[2560] < 0.602065f) {
                          if (features[613] < 0.553306f) {
                              return 0;
                          } else {
                              return 1;
                          }
                      } else {
                          if (features[2254] < 0.662868f) {
                              return 1;
                          } else {
                              return 0;
                          }
                      }
                  } else {
                      if (features[572] < 0.877137f) {
                          if (features[2099] < 0.845194f) {
                              return 1;
                          } else {
                              return 0;
                          }
                      } else {
                          if (features[487] < 0.793788f) {
                              return 0;
                          } else {
                              return 1;
                          }
                      }
                  }
              } else {
                  if (features[2448] < 0.943671f) {
                      if (features[647] < 0.898592f) {
                          if (features[1787] < 0.789153f) {
                              return 1;
                          } else {
                              return 0;
                          }
                      } else {
                          if (features[504] < 0.769357f) {
                              return 0;
                          } else {
                              return 1;
                          }
                      }
                  } else {
                      if (features[2497] < 0.984270f) {
                          if (features[606] < 0.928660f) {
                              return 0;
                          } else {
                              return 1;
                          }
                      } else {
                          if (features[2313] < 0.933557f) {
                              return 1;
                          } else {
                              return 0;
                          }
                      }
                  }
              }
          } else {
              if (features[573] < 1.545813f) {
                  if (features[2422] < 1.273863f) {
                      if (features[469] < 1.043753f) {
                          if (features[2008] < 1.213950f) {
                              return 0;
                          } else {
                              return 0;
                          }
                      } else {
                          if (features[766] < 0.907914f) {
                              return 0;
                          } else {
                              return 1;
                          }
                      }
                  } else {
                      if (features[1985] < 1.302976f) {
                          if (features[470] < 1.112697f) {
                              return 0;
                          } else {
                              return 1;
                          }
                      } else {
                          if (features[2494] < 1.149979f) {
                              return 1;
                          } else {
                              return 0;
                          }
                      }
                  }
              } else {
                  if (features[420] < 1.506784f) {
                      if (features[2368] < 1.501725f) {
                          if (features[665] < 1.234979f) {
                              return 1;
                          } else {
                              return 1;
                          }
                      } else {
                          if (features[1994] < 1.425853f) {
                              return 1;
                          } else {
                              return 0;
                          }
                      }
                  } else {
                      if (features[523] < 1.261614f) {
                          if (features[2447] < 1.358024f) {
                              return 1;
                          } else {
                              return 0;
                          }
                      } else {
                          if (features[560] < 1.575424f) {
                              return 1;
                          } else {
                              return 1;
                          }
                      }
                  }
              }
          }
        }
        

static inline int32_t dt_tree_1(const float *features, int32_t features_length) {
          if (features[486] < 1.609824f) {
              if (features[2386] < 1.002243f) {
                  if (features[616] < 0.833543f) {
                      if (features[2527] < 0.657819f) {
                          if (features[643] < 0.605149f) {
                              return 0;
                          } else {
                              return 1;
                          }
                      } else {
                          if (features[1847] < 0.696464f) {
                              return 1;
                          } else {
                              return 0;
                          }
                      }
                  } else {
                      if (features[544] < 0.729473f) {
                          if (features[1647] < 0.750240f) {
                              return 1;
                          } else {
                              return 0;
                          }
                      } else {
                          if (features[472] < 0.739341f) {
                              return 0;
                          } else {
                              return 1;
                          }
                      }
                  }
              } else {
                  if (features[2203] < 0.986880f) {
                      if (features[683] < 0.964540f) {
                          if (features[3476] < 0.999346f) {
                              return 0;
                          } else {
                              return 1;
                          }
                      } else {
                          if (features[438] < 0.891180f) {
                              return 0;
                          } else {
                              return 1;
                          }
                      }
                  } else {
                      if (features[2405] < 0.959565f) {
                          if (features[831] < 1.025382f) {
                              return 0;
                          } else {
                              return 1;
                          }
                      } else {
                          if (features[2371] < 0.934195f) {
                              return 1;
                          } else {
                              return 0;
                          }
                      }
                  }
              }
          } else {
              if (features[594] < 1.513122f) {
                  if (features[2192] < 1.429298f) {
                      if (features[519] < 0.902990f) {
                          if (features[1205] < 0.862923f) {
                              return 0;
                          } else {
                              return 0;
                          }
                      } else {
                          if (features[632] < 1.066689f) {
                              return 1;
                          } else {
                              return 1;
                          }
                      }
                  } else {
                      if (features[2329] < 1.255060f) {
                          if (features[428] < 1.145838f) {
                              return 0;
                          } else {
                              return 1;
                          }
                      } else {
                          if (features[2500] < 1.301615f) {
                              return 1;
                          } else {
                              return 0;
                          }
                      }
                  }
              } else {
